svm_type epsilon_svr
kernel_type rbf
gamma 1.0E-6
nr_class 2
total_sv 524
rho -178.33900723998204
SV
100.0 0:24.3 1:24.3 2:24.4 3:24.4 4:65.332901 5:81.190399 6:87.533401 7:95.144997 8:230.885193 9:247.376999 10:254.354294 11:236.593903 12:202.341705 13:222.005005 14:206.147491 15:202.975998 
100.0 0:24.4 1:24.4 2:24.4 3:24.4 4:87.533401 5:95.144997 6:88.167702 7:173.798203 8:254.354294 9:236.593903 10:232.788101 11:246.108398 12:206.147491 13:202.975998 14:210.587601 15:204.244598 
-100.0 0:24.4 1:24.4 2:24.4 3:24.4 4:95.144997 5:88.167702 6:173.798203 7:287.337891 8:236.593903 9:232.788101 10:246.108398 11:253.085693 12:202.975998 13:210.587601 14:204.244598 15:215.027695 
100.0 0:24.4 1:24.4 2:24.4 3:24.4 4:88.167702 5:173.798203 6:287.337891 7:284.166382 8:232.788101 9:246.108398 10:253.085693 11:244.20549 12:210.587601 13:204.244598 14:215.027695 15:208.0504 
-100.0 0:24.4 1:24.4 2:24.4 3:24.3 4:173.798203 5:287.337891 6:284.166382 7:279.726288 8:246.108398 9:253.085693 10:244.20549 11:241.033997 12:204.244598 13:215.027695 14:208.0504 15:214.393402 
-100.0 0:24.4 1:24.4 2:24.3 3:24.3 4:287.337891 5:284.166382 6:279.726288 7:292.412292 8:253.085693 9:244.20549 10:241.033997 11:239.131104 12:215.027695 13:208.0504 14:214.393402 15:201.707397 
100.0 0:24.4 1:24.3 2:24.3 3:24.3 4:284.166382 5:279.726288 6:292.412292 7:289.240784 8:244.20549 9:241.033997 10:239.131104 11:248.011292 12:208.0504 13:214.393402 14:201.707397 15:204.878891 
-100.0 0:24.3 1:24.3 2:24.3 3:24.3 4:279.726288 5:292.412292 6:289.240784 7:286.069305 8:241.033997 9:239.131104 10:248.011292 11:261.965912 12:214.393402 13:201.707397 14:204.878891 15:242.936905 
-100.0 0:24.3 1:24.3 2:24.3 3:24.3 4:292.412292 5:289.240784 6:286.069305 7:294.315186 8:239.131104 9:248.011292 10:261.965912 11:253.085693 12:201.707397 13:204.878891 14:242.936905 15:216.930603 
100.0 0:24.3 1:24.3 2:24.3 3:24.3 4:289.240784 5:286.069305 6:294.315186 7:282.897797 8:248.011292 9:261.965912 10:253.085693 11:246.108398 12:204.878891 13:242.936905 14:216.930603 15:204.878891 
-100.0 0:24.3 1:24.3 2:24.3 3:24.3 4:286.069305 5:294.315186 6:282.897797 7:296.218109 8:261.965912 9:253.085693 10:246.108398 11:249.9142 12:242.936905 13:216.930603 14:204.878891 15:220.736404 
-100.0 0:24.3 1:24.3 2:24.3 3:24.3 4:294.315186 5:282.897797 6:296.218109 7:301.926788 8:253.085693 9:246.108398 10:249.9142 11:248.645599 12:216.930603 13:204.878891 14:220.736404 15:209.953293 
100.0 0:24.3 1:24.3 2:24.3 3:24.3 4:282.897797 5:296.218109 6:301.926788 7:291.143707 8:246.108398 9:249.9142 10:248.645599 11:246.108398 12:204.878891 13:220.736404 14:209.953293 15:202.975998 
100.0 0:24.3 1:24.3 2:24.3 3:24.3 4:296.218109 5:301.926788 6:291.143707 7:286.069305 8:249.9142 9:248.645599 10:246.108398 11:251.1828 12:220.736404 13:209.953293 14:202.975998 15:212.490494 
-100.0 0:24.3 1:24.3 2:24.3 3:24.3 4:301.926788 5:291.143707 6:286.069305 7:287.972198 8:248.645599 9:246.108398 10:251.1828 11:265.13739 12:209.953293 13:202.975998 14:212.490494 15:230.2509 
100.0 0:24.3 1:24.3 2:24.3 3:24.3 4:291.143707 5:286.069305 6:287.972198 7:298.121002 8:246.108398 9:251.1828 10:265.13739 11:248.645599 12:202.975998 13:212.490494 14:230.2509 15:211.221893 
100.0 0:24.3 1:24.3 2:24.3 3:24.2 4:286.069305 5:287.972198 6:298.121002 7:269.577484 8:251.1828 9:265.13739 10:248.645599 11:253.085693 12:212.490494 13:230.2509 14:211.221893 15:228.347992 
100.0 0:24.3 1:24.3 2:24.2 3:24.2 4:287.972198 5:298.121002 6:269.577484 7:279.09201 8:265.13739 9:248.645599 10:253.085693 11:254.988602 12:230.2509 13:211.221893 14:228.347992 15:228.347992 
-100.0 0:24.2 1:24.2 2:24.2 3:24.2 4:269.577484 5:279.09201 6:294.949493 7:273.383301 8:253.085693 9:254.988602 10:251.817093 11:253.085693 12:228.347992 13:228.347992 14:232.788101 15:235.325302 
-100.0 0:24.2 1:24.2 2:24.2 3:24.1 4:279.09201 5:294.949493 6:273.383301 7:285.434998 8:254.988602 9:251.817093 10:253.085693 11:250.548492 12:228.347992 13:232.788101 14:235.325302 15:222.639297 
100.0 0:24.2 1:24.2 2:24.1 3:24.1 4:294.949493 5:273.383301 6:285.434998 7:185.849899 8:251.817093 9:253.085693 10:250.548492 11:252.451401 12:232.788101 13:235.325302 14:222.639297 15:225.810791 
100.0 0:24.2 1:24.1 2:24.1 3:24.1 4:273.383301 5:285.434998 6:185.849899 7:167.4552 8:253.085693 9:250.548492 10:252.451401 11:277.189087 12:235.325302 13:222.639297 14:225.810791 15:242.936905 
-100.0 0:24.1 1:24.1 2:24.1 3:24.1 4:285.434998 5:185.849899 6:167.4552 7:176.335403 8:250.548492 9:252.451401 10:277.189087 11:268.308899 12:222.639297 13:225.810791 14:242.936905 15:246.742691 
100.0 0:24.1 1:24.1 2:24.1 3:24.1 4:176.335403 5:102.122299 6:102.122299 7:124.3228 8:268.308899 9:271.480408 10:275.920502 11:269.577484 12:246.742691 13:246.742691 14:248.011292 15:245.474091 
-100.0 0:24.1 1:24.1 2:24.1 3:24.1 4:102.122299 5:102.122299 6:124.3228 7:156.037796 8:271.480408 9:275.920502 10:269.577484 11:277.823395 12:246.742691 13:248.011292 14:245.474091 15:256.257202 
-100.0 0:24.1 1:24.1 2:24.1 3:24.1 4:102.122299 5:124.3228 6:156.037796 7:156.672104 8:275.920502 9:269.577484 10:277.823395 11:261.331604 12:248.011292 13:245.474091 14:256.257202 15:242.936905 
-100.0 0:24.1 1:24.1 2:24.1 3:24.1 4:124.3228 5:156.037796 6:156.672104 7:123.054199 8:269.577484 9:277.823395 10:261.331604 11:268.308899 12:245.474091 13:256.257202 14:242.936905 15:244.20549 
100.0 0:24.1 1:24.1 2:24.1 3:24.0 4:156.037796 5:156.672104 6:123.054199 7:62.1614 8:277.823395 9:261.331604 10:268.308899 11:267.040283 12:256.257202 13:242.936905 14:244.20549 15:239.765396 
100.0 0:24.1 1:24.1 2:24.0 3:24.0 4:156.672104 5:123.054199 6:62.1614 7:17.126101 8:261.331604 9:268.308899 10:267.040283 11:264.503082 12:242.936905 13:244.20549 14:239.765396 15:241.668304 
100.0 0:24.1 1:24.0 2:24.0 3:24.0 4:123.054199 5:62.1614 6:17.126101 7:33.617901 8:268.308899 9:267.040283 10:264.503082 11:277.189087 12:244.20549 13:239.765396 14:241.668304 15:241.668304 
-100.0 0:24.0 1:24.0 2:24.0 3:24.0 4:62.1614 5:17.126101 6:33.617901 7:154.769196 8:267.040283 9:264.503082 10:277.189087 11:280.360596 12:239.765396 13:241.668304 14:241.668304 15:251.1828 
100.0 0:24.0 1:24.0 2:24.0 3:24.0 4:17.126101 5:33.617901 6:154.769196 7:190.289993 8:264.503082 9:277.189087 10:280.360596 11:260.697296 12:241.668304 13:241.668304 14:251.1828 15:235.325302 
100.0 0:24.0 1:24.0 2:24.0 3:24.0 4:33.617901 5:154.769196 6:190.289993 7:302.561096 8:277.189087 9:280.360596 10:260.697296 11:269.577484 12:241.668304 13:251.1828 14:235.325302 15:242.302597 
-100.0 0:24.0 1:24.0 2:23.9 3:23.9 4:190.289993 5:302.561096 6:312.7099 7:317.149994 8:260.697296 9:269.577484 10:272.114685 11:275.286194 12:235.325302 13:242.302597 14:255.622894 15:251.817093 
-100.0 0:24.0 1:23.9 2:23.9 3:23.8 4:302.561096 5:312.7099 6:317.149994 7:298.121002 8:269.577484 9:272.114685 10:275.286194 11:271.480408 12:242.302597 13:255.622894 14:251.817093 15:248.011292 
-100.0 0:23.9 1:23.9 2:23.8 3:23.8 4:312.7099 5:317.149994 6:298.121002 7:312.075592 8:272.114685 9:275.286194 10:271.480408 11:262.600189 12:255.622894 13:251.817093 14:248.011292 15:235.959595 
100.0 0:23.9 1:23.8 2:23.8 3:23.7 4:317.149994 5:298.121002 6:312.075592 7:325.395905 8:275.286194 9:271.480408 10:262.600189 11:272.748993 12:251.817093 13:248.011292 14:235.959595 15:242.936905 
-100.0 0:23.8 1:23.8 2:23.7 3:23.7 4:298.121002 5:312.075592 6:325.395905 7:312.7099 8:271.480408 9:262.600189 10:272.748993 11:275.920502 12:248.011292 13:235.959595 14:242.936905 15:256.257202 
-100.0 0:23.8 1:23.7 2:23.7 3:23.7 4:312.075592 5:325.395905 6:312.7099 7:321.590088 8:262.600189 9:272.748993 10:275.920502 11:260.697296 12:235.959595 13:242.936905 14:256.257202 15:246.108398 
-100.0 0:23.7 1:23.7 2:23.7 3:23.7 4:325.395905 5:312.7099 6:321.590088 7:315.247101 8:272.748993 9:275.920502 10:260.697296 11:260.062988 12:242.936905 13:256.257202 14:246.108398 15:248.011292 
-100.0 0:23.7 1:23.7 2:23.7 3:23.7 4:312.7099 5:321.590088 6:315.247101 7:295.583801 8:275.920502 9:260.697296 10:260.062988 11:251.817093 12:256.257202 13:246.108398 14:248.011292 15:244.839798 
-100.0 0:23.7 1:23.7 2:23.7 3:23.7 4:321.590088 5:315.247101 6:295.583801 7:314.612793 8:260.697296 9:260.062988 10:251.817093 11:277.823395 12:246.108398 13:248.011292 14:244.839798 15:238.496796 
-100.0 0:23.7 1:23.7 2:23.7 3:23.7 4:315.247101 5:295.583801 6:314.612793 7:161.746506 8:260.062988 9:251.817093 10:277.823395 11:261.965912 12:248.011292 13:244.839798 14:238.496796 15:239.765396 
-100.0 0:23.7 1:23.7 2:23.7 3:23.7 4:295.583801 5:314.612793 6:161.746506 7:209.319 8:251.817093 9:277.823395 10:261.965912 11:204.244598 12:244.839798 13:238.496796 14:239.765396 15:237.228195 
100.0 0:23.7 1:23.7 2:23.7 3:23.7 4:314.612793 5:161.746506 6:209.319 7:182.044098 8:277.823395 9:261.965912 10:204.244598 11:196.632996 12:238.496796 13:239.765396 14:237.228195 15:230.2509 
100.0 0:23.7 1:23.7 2:23.7 3:23.7 4:161.746506 5:209.319 6:182.044098 7:194.730103 8:261.965912 9:204.244598 10:196.632996 11:207.416092 12:239.765396 13:237.228195 14:230.2509 15:237.862503 
-100.0 0:23.7 1:23.7 2:23.7 3:23.8 4:209.319 5:182.044098 6:194.730103 7:190.924301 8:204.244598 9:196.632996 10:207.416092 11:217.564896 12:237.228195 13:230.2509 14:237.862503 15:242.302597 
-100.0 0:23.7 1:23.7 2:23.8 3:23.8 4:182.044098 5:194.730103 6:190.924301 7:194.095795 8:196.632996 9:207.416092 10:217.564896 11:211.221893 12:230.2509 13:237.862503 14:242.302597 15:236.593903 
100.0 0:23.7 1:23.8 2:23.8 3:23.8 4:194.730103 5:190.924301 6:194.095795 7:107.831001 8:207.416092 9:217.564896 10:211.221893 11:202.975998 12:237.862503 13:242.302597 14:236.593903 15:227.713699 
100.0 0:23.8 1:23.8 2:23.8 3:23.8 4:190.924301 5:194.095795 6:107.831001 7:111.002502 8:217.564896 9:211.221893 10:202.975998 11:206.781799 12:242.302597 13:236.593903 14:227.713699 15:236.593903 
-100.0 0:23.8 1:23.8 2:23.8 3:23.8 4:194.095795 5:107.831001 6:111.002502 7:108.465302 8:211.221893 9:202.975998 10:206.781799 11:211.221893 12:236.593903 13:227.713699 14:236.593903 15:248.011292 
-100.0 0:23.8 1:23.8 2:23.8 3:23.7 4:111.002502 5:108.465302 6:44.401001 7:45.035301 8:206.781799 9:211.221893 10:193.461502 11:168.089493 12:236.593903 13:248.011292 14:228.347992 15:234.690994 
100.0 0:23.8 1:23.8 2:23.7 3:23.7 4:108.465302 5:44.401001 6:45.035301 7:86.899101 8:211.221893 9:193.461502 10:168.089493 11:173.163895 12:248.011292 13:228.347992 14:234.690994 15:214.393402 
100.0 0:23.8 1:23.7 2:23.7 3:23.7 4:44.401001 5:45.035301 6:86.899101 7:21.5662 8:193.461502 9:168.089493 10:173.163895 11:163.015091 12:228.347992 13:234.690994 14:214.393402 15:240.399704 
100.0 0:23.7 1:23.7 2:23.7 3:23.7 4:45.035301 5:86.899101 6:21.5662 7:79.921799 8:168.089493 9:173.163895 10:163.015091 11:169.992401 12:234.690994 13:214.393402 14:240.399704 15:231.519501 
90.103309058832 0:23.7 1:23.7 2:23.7 3:23.7 4:86.899101 5:21.5662 6:79.921799 7:79.287498 8:173.163895 9:163.015091 10:169.992401 11:166.820892 12:214.393402 13:240.399704 14:231.519501 15:237.862503 
100.0 0:23.7 1:23.7 2:23.7 3:23.6 4:79.921799 5:79.287498 6:78.653198 7:65.332901 8:169.992401 9:166.820892 10:171.261002 11:178.238297 12:231.519501 13:237.862503 14:235.959595 15:232.788101 
100.0 0:23.7 1:23.7 2:23.6 3:23.6 4:79.287498 5:78.653198 6:65.332901 7:71.041595 8:166.820892 9:171.261002 10:178.238297 11:170.626694 12:237.862503 13:235.959595 14:232.788101 15:242.302597 
-100.0 0:23.7 1:23.6 2:23.6 3:23.6 4:78.653198 5:65.332901 6:71.041595 7:69.138702 8:171.261002 9:178.238297 10:170.626694 11:176.335403 12:235.959595 13:232.788101 14:242.302597 15:239.765396 
-100.0 0:23.6 1:23.6 2:23.6 3:23.6 4:65.332901 5:71.041595 6:69.138702 7:61.5271 8:178.238297 9:170.626694 10:176.335403 11:171.895294 12:232.788101 13:242.302597 14:239.765396 15:169.358093 
-100.0 0:23.6 1:23.6 2:23.6 3:23.6 4:71.041595 5:69.138702 6:61.5271 7:65.332901 8:170.626694 9:176.335403 10:171.895294 11:168.089493 12:242.302597 13:239.765396 14:169.358093 15:129.397202 
-100.0 0:23.6 1:23.6 2:23.6 3:23.6 4:69.138702 5:61.5271 6:65.332901 7:53.915501 8:176.335403 9:171.895294 10:168.089493 11:169.358093 12:239.765396 13:169.358093 14:129.397202 15:88.802002 
-100.0 0:23.6 1:23.6 2:23.6 3:23.6 4:61.5271 5:65.332901 6:53.915501 7:44.401001 8:171.895294 9:168.089493 10:169.358093 11:183.946991 12:169.358093 13:129.397202 14:88.802002 15:77.384598 
-100.0 0:23.6 1:23.6 2:23.6 3:23.6 4:65.332901 5:53.915501 6:44.401001 7:41.8638 8:168.089493 9:169.358093 10:183.946991 11:182.678406 12:129.397202 13:88.802002 14:77.384598 15:76.750298 
-100.0 0:23.6 1:23.6 2:23.6 3:23.6 4:53.915501 5:44.401001 6:41.8638 7:57.721298 8:169.358093 9:183.946991 10:182.678406 11:174.432495 12:88.802002 13:77.384598 14:76.750298 15:76.750298 
100.0 0:23.6 1:23.6 2:23.6 3:23.6 4:44.401001 5:41.8638 6:57.721298 7:69.773003 8:183.946991 9:182.678406 10:174.432495 11:189.021393 12:77.384598 13:76.750298 14:76.750298 15:74.213097 
-100.0 0:23.6 1:23.6 2:23.6 3:23.6 4:41.8638 5:57.721298 6:69.773003 7:72.944496 8:182.678406 9:174.432495 10:189.021393 11:168.723801 12:76.750298 13:76.750298 14:74.213097 15:91.339203 
100.0 0:23.6 1:23.6 2:23.6 3:23.6 4:57.721298 5:69.773003 6:72.944496 7:9.5145 8:174.432495 9:189.021393 10:168.723801 11:175.066803 12:76.750298 13:74.213097 14:91.339203 15:81.824699 
-100.0 0:23.6 1:23.6 2:23.6 3:23.6 4:69.773003 5:72.944496 6:9.5145 7:19.6633 8:189.021393 9:168.723801 10:175.066803 11:188.3871 12:74.213097 13:91.339203 14:81.824699 15:91.339203 
-100.0 0:23.6 1:23.6 2:23.6 3:23.6 4:72.944496 5:9.5145 6:19.6633 7:24.103399 8:168.723801 9:175.066803 10:188.3871 11:173.163895 12:91.339203 13:81.824699 14:91.339203 15:44.401001 
-100.0 0:23.6 1:23.6 2:23.6 3:23.5 4:9.5145 5:19.6633 6:24.103399 7:34.252201 8:175.066803 9:188.3871 10:173.163895 11:178.238297 12:81.824699 13:91.339203 14:44.401001 15:40.5952 
-100.0 0:23.6 1:23.6 2:23.5 3:23.5 4:19.6633 5:24.103399 6:34.252201 7:53.2812 8:188.3871 9:173.163895 10:178.238297 11:165.552292 12:91.339203 13:44.401001 14:40.5952 15:32.3493 
-100.0 0:23.6 1:23.5 2:23.5 3:23.6 4:24.103399 5:34.252201 6:53.2812 7:50.743999 8:173.163895 9:178.238297 10:165.552292 11:169.992401 12:44.401001 13:40.5952 14:32.3493 15:39.960899 
-100.0 0:23.5 1:23.5 2:23.6 3:23.6 4:34.252201 5:53.2812 6:50.743999 7:83.0933 8:178.238297 9:165.552292 10:169.992401 11:172.529602 12:40.5952 13:32.3493 14:39.960899 15:43.132401 
-100.0 0:23.5 1:23.6 2:23.6 3:23.6 4:53.2812 5:50.743999 6:83.0933 7:95.779297 8:165.552292 9:169.992401 10:172.529602 11:163.015091 12:32.3493 13:39.960899 14:43.132401 15:31.0807 
-100.0 0:23.6 1:23.6 2:23.6 3:23.6 4:50.743999 5:83.0933 6:95.779297 7:138.911697 8:169.992401 9:172.529602 10:163.015091 11:166.820892 12:39.960899 13:43.132401 14:31.0807 15:34.252201 
100.0 0:23.6 1:23.6 2:23.6 3:23.6 4:83.0933 5:95.779297 6:138.911697 7:66.601501 8:172.529602 9:163.015091 10:166.820892 11:111.002502 12:43.132401 13:31.0807 14:34.252201 15:24.7377 
100.0 0:23.6 1:23.6 2:23.6 3:23.6 4:95.779297 5:138.911697 6:66.601501 7:117.979797 8:163.015091 9:166.820892 10:111.002502 11:77.384598 12:31.0807 13:34.252201 14:24.7377 15:38.692299 
91.53214233491808 0:23.6 1:23.6 2:23.6 3:23.6 4:138.911697 5:66.601501 6:117.979797 7:171.895294 8:166.820892 9:111.002502 10:77.384598 11:82.459 12:34.252201 13:24.7377 14:38.692299 15:40.5952 
-100.0 0:23.6 1:23.6 2:23.6 3:23.6 4:66.601501 5:117.979797 6:171.895294 7:161.112198 8:111.002502 9:77.384598 10:82.459 11:83.0933 12:24.7377 13:38.692299 14:40.5952 15:46.303898 
-100.0 0:23.6 1:23.6 2:23.6 3:23.7 4:117.979797 5:171.895294 6:161.112198 7:107.831001 8:77.384598 9:82.459 10:83.0933 11:74.847397 12:38.692299 13:40.5952 14:46.303898 15:35.520798 
-100.0 0:23.6 1:23.6 2:23.7 3:23.7 4:171.895294 5:161.112198 6:107.831001 7:252.451401 8:82.459 9:83.0933 10:74.847397 11:82.459 12:40.5952 13:46.303898 14:35.520798 15:30.4464 
-100.0 0:23.6 1:23.7 2:23.7 3:23.8 4:161.112198 5:107.831001 6:252.451401 7:300.658203 8:83.0933 9:74.847397 10:82.459 11:65.967201 12:46.303898 13:35.520798 14:30.4464 15:31.0807 
-100.0 0:23.7 1:23.7 2:23.8 3:23.8 4:107.831001 5:252.451401 6:300.658203 7:339.984802 8:74.847397 9:82.459 10:65.967201 11:79.921799 12:35.520798 13:30.4464 14:31.0807 15:40.5952 
-100.0 0:23.7 1:23.8 2:23.8 3:23.9 4:252.451401 5:300.658203 6:339.984802 7:308.269806 8:82.459 9:65.967201 10:79.921799 11:65.967201 12:30.4464 13:31.0807 14:40.5952 15:40.5952 
-100.0 0:23.8 1:23.8 2:23.9 3:23.9 4:300.658203 5:339.984802 6:308.269806 7:313.344208 8:65.967201 9:79.921799 10:65.967201 11:72.310196 12:31.0807 13:40.5952 14:40.5952 15:34.252201 
-100.0 0:23.8 1:23.9 2:23.9 3:24.0 4:339.984802 5:308.269806 6:313.344208 7:314.612793 8:79.921799 9:65.967201 10:72.310196 11:65.332901 12:40.5952 13:40.5952 14:34.252201 15:34.886501 
-100.0 0:23.9 1:23.9 2:24.0 3:24.0 4:308.269806 5:313.344208 6:314.612793 7:310.172699 8:65.967201 9:72.310196 10:65.332901 11:74.213097 12:40.5952 13:34.252201 14:34.886501 15:39.326599 
-100.0 0:23.9 1:24.0 2:24.0 3:24.2 4:313.344208 5:314.612793 6:310.172699 7:396.4375 8:72.310196 9:65.332901 10:74.213097 11:60.892799 12:34.252201 13:34.886501 14:39.326599 15:30.4464 
100.0 0:24.0 1:24.0 2:24.2 3:24.2 4:314.612793 5:310.172699 6:396.4375 7:397.706085 8:65.332901 9:74.213097 10:60.892799 11:69.773003 12:34.886501 13:39.326599 14:30.4464 15:32.3493 
-100.0 0:24.0 1:24.2 2:24.2 3:24.4 4:310.172699 5:396.4375 6:397.706085 7:511.245789 8:74.213097 9:60.892799 10:69.773003 11:73.578796 12:39.326599 13:30.4464 14:32.3493 15:41.2295 
-100.0 0:24.2 1:24.2 2:24.4 3:24.4 4:396.4375 5:397.706085 6:511.245789 7:214.393402 8:60.892799 9:69.773003 10:73.578796 11:80.556099 12:30.4464 13:32.3493 14:41.2295 15:26.6406 
-100.0 0:24.2 1:24.4 2:24.4 3:24.7 4:397.706085 5:511.245789 6:214.393402 7:109.099602 8:69.773003 9:73.578796 10:80.556099 11:77.384598 12:32.3493 13:41.2295 14:26.6406 15:39.326599 
-100.0 0:24.4 1:24.4 2:24.7 3:24.7 4:511.245789 5:214.393402 6:109.099602 7:305.098297 8:73.578796 9:80.556099 10:77.384598 11:64.698601 12:41.2295 13:26.6406 14:39.326599 15:32.983601 
82.78988015330752 0:24.4 1:24.7 2:24.7 3:24.9 4:214.393402 5:109.099602 6:305.098297 7:313.978485 8:80.556099 9:77.384598 10:64.698601 11:64.064301 12:26.6406 13:39.326599 14:32.983601 15:36.155098 
72.05911548103643 0:24.7 1:24.7 2:24.9 3:24.9 4:109.099602 5:305.098297 6:313.978485 7:408.489197 8:77.384598 9:64.698601 10:64.064301 11:81.824699 12:39.326599 13:32.983601 14:36.155098 15:52.6469 
100.0 0:24.7 1:24.9 2:24.9 3:25.0 4:305.098297 5:313.978485 6:408.489197 7:522.663208 8:64.698601 9:64.064301 10:81.824699 11:67.870102 12:32.983601 13:36.155098 14:52.6469 15:52.0126 
-100.0 0:24.9 1:24.9 2:25.0 3:25.0 4:313.978485 5:408.489197 6:522.663208 7:508.07428 8:64.064301 9:81.824699 10:67.870102 11:82.459 12:36.155098 13:52.6469 14:52.0126 15:57.721298 
100.0 0:24.9 1:25.0 2:25.0 3:25.0 4:408.489197 5:522.663208 6:508.07428 7:541.057922 8:81.824699 9:67.870102 10:82.459 11:76.750298 12:52.6469 13:52.0126 14:57.721298 15:40.5952 
100.0 0:25.0 1:25.0 2:25.0 3:25.0 4:522.663208 5:508.07428 6:541.057922 7:615.270996 8:67.870102 9:82.459 10:76.750298 11:76.115997 12:52.0126 13:57.721298 14:40.5952 15:52.0126 
-100.0 0:25.0 1:25.0 2:25.0 3:25.1 4:508.07428 5:541.057922 6:615.270996 7:622.882568 8:82.459 9:76.750298 10:76.115997 11:71.675896 12:57.721298 13:40.5952 14:52.0126 15:44.401001 
21.00901940005477 0:25.0 1:25.0 2:25.1 3:25.1 4:541.057922 5:615.270996 6:622.882568 7:612.099487 8:76.750298 9:76.115997 10:71.675896 11:73.578796 12:40.5952 13:52.0126 14:44.401001 15:31.0807 
-100.0 0:25.0 1:25.1 2:25.1 3:25.0 4:615.270996 5:622.882568 6:612.099487 7:618.442505 8:76.115997 9:71.675896 10:73.578796 11:64.698601 12:52.0126 13:44.401001 14:31.0807 15:36.155098 
-100.0 0:25.1 1:25.1 2:25.0 3:25.0 4:622.882568 5:612.099487 6:618.442505 7:619.076782 8:71.675896 9:73.578796 10:64.698601 11:70.407303 12:44.401001 13:31.0807 14:36.155098 15:30.4464 
-100.0 0:25.1 1:25.0 2:25.0 3:25.1 4:612.099487 5:618.442505 6:619.076782 7:719.930481 8:73.578796 9:64.698601 10:70.407303 11:84.996201 12:31.0807 13:36.155098 14:30.4464 15:32.983601 
99.12255913100854 0:25.0 1:25.0 2:25.1 3:25.1 4:618.442505 5:619.076782 6:719.930481 7:714.856079 8:64.698601 9:70.407303 10:84.996201 11:59.624199 12:36.155098 13:30.4464 14:32.983601 15:30.4464 
100.0 0:25.0 1:25.1 2:25.1 3:25.1 4:619.076782 5:719.930481 6:714.856079 7:608.293701 8:70.407303 9:84.996201 10:59.624199 11:53.915501 12:30.4464 13:32.983601 14:30.4464 15:38.057999 
-8.3396039491294 0:25.1 1:25.1 2:25.1 3:25.1 4:719.930481 5:714.856079 6:608.293701 7:610.830872 8:84.996201 9:59.624199 10:53.915501 11:52.6469 12:32.983601 13:30.4464 14:38.057999 15:41.2295 
-100.0 0:25.1 1:25.1 2:25.1 3:25.1 4:714.856079 5:608.293701 6:610.830872 7:622.882568 8:59.624199 9:53.915501 10:52.6469 11:50.743999 12:30.4464 13:38.057999 14:41.2295 15:41.2295 
-100.0 0:25.1 1:25.1 2:25.1 3:25.1 4:608.293701 5:610.830872 6:622.882568 7:598.144897 8:53.915501 9:52.6469 10:50.743999 11:53.915501 12:38.057999 13:41.2295 14:41.2295 15:26.0063 
-100.0 0:25.1 1:25.1 2:25.1 3:25.2 4:610.830872 5:622.882568 6:598.144897 7:601.316406 8:52.6469 9:50.743999 10:53.915501 11:51.3783 12:41.2295 13:41.2295 14:26.0063 15:23.469099 
100.0 0:25.1 1:25.1 2:25.2 3:25.2 4:622.882568 5:598.144897 6:601.316406 7:605.122192 8:50.743999 9:53.915501 10:51.3783 11:58.355598 12:41.2295 13:26.0063 14:23.469099 15:19.028999 
100.0 0:25.1 1:25.2 2:25.2 3:25.3 4:598.144897 5:601.316406 6:605.122192 7:617.808167 8:53.915501 9:51.3783 10:58.355598 11:48.206799 12:26.0063 13:23.469099 14:19.028999 15:49.475399 
-93.5955438176549 0:25.2 1:25.2 2:25.3 3:25.3 4:601.316406 5:605.122192 6:617.808167 7:610.830872 8:51.3783 9:58.355598 10:48.206799 11:45.035301 12:23.469099 13:19.028999 14:49.475399 15:64.698601 
100.0 0:25.2 1:25.3 2:25.3 3:25.7 4:605.122192 5:617.808167 6:610.830872 7:600.682068 8:58.355598 9:48.206799 10:45.035301 11:90.704903 12:19.028999 13:49.475399 14:64.698601 15:45.669601 
100.0 0:25.3 1:25.3 2:25.7 3:25.7 4:617.808167 5:610.830872 6:600.682068 7:605.122192 8:48.206799 9:45.035301 10:90.704903 11:187.1185 12:49.475399 13:64.698601 14:45.669601 15:62.1614 
-100.0 0:25.3 1:25.7 2:25.7 3:26.0 4:610.830872 5:600.682068 6:605.122192 7:594.339111 8:45.035301 9:90.704903 10:187.1185 11:173.163895 12:64.698601 13:45.669601 14:62.1614 15:61.5271 
-100.0 0:25.7 1:25.7 2:26.0 3:26.0 4:600.682068 5:605.122192 6:594.339111 7:599.413513 8:90.704903 9:187.1185 10:173.163895 11:237.228195 12:45.669601 13:62.1614 14:61.5271 15:57.721298 
100.0 0:25.7 1:26.0 2:26.0 3:26.4 4:605.122192 5:594.339111 6:599.413513 7:482.067993 8:187.1185 9:173.163895 10:237.228195 11:262.600189 12:62.1614 13:61.5271 14:57.721298 15:47.572498 
100.0 0:26.0 1:26.0 2:26.4 3:26.4 4:594.339111 5:599.413513 6:482.067993 7:383.117188 8:173.163895 9:237.228195 10:262.600189 11:230.2509 12:61.5271 13:57.721298 14:47.572498 15:81.824699 
87.65112072714498 0:26.0 1:26.4 2:26.4 3:26.9 4:599.413513 5:482.067993 6:383.117188 7:382.48291 8:237.228195 9:262.600189 10:230.2509 11:235.959595 12:57.721298 13:47.572498 14:81.824699 15:94.510696 
100.0 0:26.4 1:26.4 2:26.9 3:26.9 4:482.067993 5:383.117188 6:382.48291 7:390.094482 8:262.600189 9:230.2509 10:235.959595 11:255.622894 12:47.572498 13:81.824699 14:94.510696 15:95.144997 
100.0 0:26.4 1:26.9 2:26.9 3:27.1 4:383.117188 5:382.48291 6:390.094482 7:281.629211 8:230.2509 9:235.959595 10:255.622894 11:228.347992 12:81.824699 13:94.510696 14:95.144997 15:146.5233 
-100.0 0:26.9 1:26.9 2:27.1 3:27.1 4:382.48291 5:390.094482 6:281.629211 7:282.263489 8:235.959595 9:255.622894 10:228.347992 11:241.033997 12:94.510696 13:95.144997 14:146.5233 15:156.672104 
100.0 0:26.9 1:27.1 2:27.1 3:27.3 4:390.094482 5:281.629211 6:282.263489 7:292.412292 8:255.622894 9:228.347992 10:241.033997 11:225.810791 12:95.144997 13:146.5233 14:156.672104 15:142.717499 
100.0 0:27.1 1:27.1 2:27.3 3:27.3 4:281.629211 5:282.263489 6:292.412292 7:232.788101 8:228.347992 9:241.033997 10:225.810791 11:227.713699 12:146.5233 13:156.672104 14:142.717499 15:206.781799 
100.0 0:27.1 1:27.3 2:27.3 3:27.6 4:282.263489 5:292.412292 6:232.788101 7:230.2509 8:241.033997 9:225.810791 10:227.713699 11:231.519501 12:156.672104 13:142.717499 14:206.781799 15:206.781799 
-100.0 0:27.3 1:27.3 2:27.6 3:27.6 4:292.412292 5:232.788101 6:230.2509 7:226.445099 8:225.810791 9:227.713699 10:231.519501 11:234.690994 12:142.717499 13:206.781799 14:206.781799 15:208.684692 
-100.0 0:27.3 1:27.6 2:27.6 3:27.7 4:232.788101 5:230.2509 6:226.445099 7:228.347992 8:227.713699 9:231.519501 10:234.690994 11:228.9823 12:206.781799 13:206.781799 14:208.684692 15:202.341705 
-100.0 0:27.6 1:27.6 2:27.7 3:27.7 4:230.2509 5:226.445099 6:228.347992 7:235.959595 8:231.519501 9:234.690994 10:228.9823 11:228.347992 12:206.781799 13:208.684692 14:202.341705 15:201.707397 
-100.0 0:27.6 1:27.7 2:27.7 3:28.0 4:226.445099 5:228.347992 6:235.959595 7:228.9823 8:234.690994 9:228.9823 10:228.347992 11:232.153793 12:208.684692 13:202.341705 14:201.707397 15:202.341705 
-100.0 0:27.7 1:27.7 2:28.0 3:28.0 4:228.347992 5:235.959595 6:228.9823 7:300.023895 8:228.9823 9:228.347992 10:232.153793 11:225.810791 12:202.341705 13:201.707397 14:202.341705 15:192.827194 
-100.0 0:27.7 1:28.0 2:28.0 3:28.1 4:235.959595 5:228.9823 6:300.023895 7:313.344208 8:228.347992 9:232.153793 10:225.810791 11:225.810791 12:201.707397 13:202.341705 14:192.827194 15:191.558594 
-100.0 0:28.0 1:28.0 2:28.1 3:28.1 4:228.9823 5:300.023895 6:313.344208 7:287.972198 8:232.153793 9:225.810791 10:225.810791 11:226.445099 12:202.341705 13:192.827194 14:191.558594 15:192.827194 
100.0 0:28.0 1:28.1 2:28.1 3:28.3 4:300.023895 5:313.344208 6:287.972198 7:293.680908 8:225.810791 9:225.810791 10:226.445099 11:220.102097 12:192.827194 13:191.558594 14:192.827194 15:180.141205 
100.0 0:28.1 1:28.1 2:28.3 3:28.3 4:313.344208 5:287.972198 6:293.680908 7:286.703583 8:225.810791 9:226.445099 10:220.102097 11:220.736404 12:191.558594 13:192.827194 14:180.141205 15:189.021393 
-100.0 0:28.3 1:28.3 2:28.5 3:28.5 4:293.680908 5:286.703583 6:170.626694 7:171.895294 8:220.102097 9:220.736404 10:224.542191 11:221.370697 12:180.141205 13:189.021393 14:195.364395 15:195.364395 
-100.0 0:28.3 1:28.5 2:28.5 3:28.6 4:286.703583 5:170.626694 6:171.895294 7:126.2257 8:220.736404 9:224.542191 10:221.370697 11:215.662003 12:189.021393 13:195.364395 14:195.364395 15:183.312698 
-100.0 0:28.5 1:28.5 2:28.6 3:28.6 4:170.626694 5:171.895294 6:126.2257 7:109.099602 8:224.542191 9:221.370697 10:215.662003 11:223.907898 12:195.364395 13:195.364395 14:183.312698 15:185.849899 
100.0 0:28.6 1:28.6 2:29.0 3:29.0 4:126.2257 5:109.099602 6:187.1185 7:187.1185 8:215.662003 9:223.907898 10:212.490494 11:213.759094 12:183.312698 13:185.849899 14:176.969696 15:178.238297 
100.0 0:28.6 1:29.0 2:29.0 3:29.1 4:109.099602 5:187.1185 6:187.1185 7:236.593903 8:223.907898 9:212.490494 10:213.759094 11:220.102097 12:185.849899 13:176.969696 14:178.238297 15:188.3871 
-100.0 0:29.0 1:29.0 2:29.1 3:29.1 4:187.1185 5:187.1185 6:236.593903 7:300.023895 8:212.490494 9:213.759094 10:220.102097 11:210.587601 12:176.969696 13:178.238297 14:188.3871 15:187.752792 
-100.0 0:29.1 1:29.1 2:29.5 3:29.5 4:236.593903 5:300.023895 6:296.218109 7:300.023895 8:220.102097 9:210.587601 10:213.124802 11:307.00119 12:188.3871 13:187.752792 14:174.432495 15:180.775497 
100.0 0:29.1 1:29.5 2:29.5 3:29.4 4:300.023895 5:296.218109 6:300.023895 7:410.39209 8:210.587601 9:213.124802 10:307.00119 11:307.00119 12:187.752792 13:174.432495 14:180.775497 15:167.4552 
100.0 0:29.5 1:29.5 2:29.4 3:29.4 4:296.218109 5:300.023895 6:410.39209 7:394.534607 8:213.124802 9:307.00119 10:307.00119 11:304.463989 12:174.432495 13:180.775497 14:167.4552 15:180.775497 
-100.0 0:29.5 1:29.4 2:29.4 3:29.4 4:300.023895 5:410.39209 6:394.534607 7:411.026398 8:307.00119 9:307.00119 10:304.463989 11:296.218109 12:180.775497 13:167.4552 14:180.775497 15:183.946991 
-100.0 0:29.4 1:29.4 2:29.4 3:29.4 4:410.39209 5:394.534607 6:411.026398 7:512.514404 8:307.00119 9:304.463989 10:296.218109 11:316.515686 12:167.4552 13:180.775497 14:183.946991 15:168.723801 
-100.0 0:29.4 1:29.4 2:29.4 3:29.7 4:394.534607 5:411.026398 6:512.514404 7:513.148682 8:304.463989 9:296.218109 10:316.515686 11:298.121002 12:180.775497 13:183.946991 14:168.723801 15:164.283691 
-100.0 0:29.4 1:29.4 2:29.7 3:29.7 4:411.026398 5:512.514404 6:513.148682 7:504.268494 8:296.218109 9:316.515686 10:298.121002 11:294.949493 12:183.946991 13:168.723801 14:164.283691 15:163.015091 
-100.0 0:29.4 1:29.7 2:29.7 3:29.6 4:512.514404 5:513.148682 6:504.268494 7:511.880096 8:316.515686 9:298.121002 10:294.949493 11:293.0466 12:168.723801 13:164.283691 14:163.015091 15:159.209305 
-100.0 0:29.7 1:29.7 2:29.6 3:29.6 4:513.148682 5:504.268494 6:511.880096 7:509.977203 8:298.121002 9:294.949493 10:293.0466 11:291.777985 12:164.283691 13:163.015091 14:159.209305 15:159.843597 
-100.0 0:29.7 1:29.6 2:29.6 3:29.8 4:504.268494 5:511.880096 6:509.977203 7:511.245789 8:294.949493 9:293.0466 10:291.777985 11:289.240784 12:163.015091 13:159.209305 14:159.843597 15:155.403503 
-100.0 0:29.6 1:29.6 2:29.8 3:29.8 4:511.880096 5:509.977203 6:511.245789 7:496.022583 8:293.0466 9:291.777985 10:289.240784 11:198.535904 12:159.209305 13:159.843597 14:155.403503 15:24.7377 
-100.0 0:29.6 1:29.8 2:29.8 3:29.8 4:509.977203 5:511.245789 6:496.022583 7:502.999908 8:291.777985 9:289.240784 10:198.535904 11:142.083191 12:159.843597 13:155.403503 14:24.7377 15:26.6406 
-100.0 0:29.8 1:29.8 2:29.8 3:29.8 4:511.245789 5:496.022583 6:502.999908 7:492.851105 8:289.240784 9:198.535904 10:142.083191 11:142.083191 12:155.403503 13:24.7377 14:26.6406 15:25.372 
-100.0 0:29.8 1:29.8 2:29.8 3:29.9 4:496.022583 5:502.999908 6:492.851105 7:393.265991 8:198.535904 9:142.083191 10:142.083191 11:142.083191 12:24.7377 13:26.6406 14:25.372 15:19.028999 
100.0 0:29.8 1:29.8 2:29.9 3:29.9 4:502.999908 5:492.851105 6:393.265991 7:397.706085 8:142.083191 9:142.083191 10:142.083191 11:143.351791 12:26.6406 13:25.372 14:19.028999 15:5.7087 
100.0 0:29.8 1:29.9 2:29.9 3:29.9 4:492.851105 5:393.265991 6:397.706085 7:236.593903 8:142.083191 9:142.083191 10:143.351791 11:140.180298 12:25.372 13:19.028999 14:5.7087 15:34.252201 
100.0 0:29.9 1:29.9 2:29.9 3:29.9 4:393.265991 5:397.706085 6:236.593903 7:205.513199 8:142.083191 9:143.351791 10:140.180298 11:143.986099 12:19.028999 13:5.7087 14:34.252201 15:45.035301 
100.0 0:29.9 1:29.9 2:29.9 3:30.1 4:397.706085 5:236.593903 6:205.513199 7:240.399704 8:143.351791 9:140.180298 10:143.986099 11:200.438797 12:5.7087 13:34.252201 14:45.035301 15:101.487999 
100.0 0:29.9 1:29.9 2:30.1 3:30.1 4:236.593903 5:205.513199 6:240.399704 7:295.583801 8:140.180298 9:143.986099 10:200.438797 11:197.267303 12:34.252201 13:45.035301 14:101.487999 15:97.682198 
100.0 0:29.9 1:30.1 2:30.1 3:30.3 4:205.513199 5:240.399704 6:295.583801 7:378.042786 8:143.986099 9:200.438797 10:197.267303 11:200.438797 12:45.035301 13:101.487999 14:97.682198 15:157.306396 
100.0 0:30.1 1:30.1 2:30.3 3:30.3 4:240.399704 5:295.583801 6:378.042786 7:380.579987 8:200.438797 9:197.267303 10:200.438797 11:200.438797 12:101.487999 13:97.682198 14:157.306396 15:161.112198 
100.0 0:30.1 1:30.3 2:30.3 3:30.3 4:295.583801 5:378.042786 6:380.579987 7:380.579987 8:197.267303 9:200.438797 10:200.438797 11:192.192902 12:97.682198 13:157.306396 14:161.112198 15:254.988602 
100.0 0:30.3 1:30.3 2:30.3 3:30.3 4:378.042786 5:380.579987 6:380.579987 7:471.284882 8:200.438797 9:200.438797 10:192.192902 11:201.073105 12:157.306396 13:161.112198 14:254.988602 15:247.376999 
100.0 0:30.3 1:30.3 2:30.3 3:30.3 4:380.579987 5:380.579987 6:471.284882 7:468.747681 8:200.438797 9:192.192902 10:201.073105 11:296.218109 12:161.112198 13:254.988602 14:247.376999 15:243.571198 
100.0 0:30.3 1:30.3 2:30.3 3:30.3 4:380.579987 5:471.284882 6:468.747681 7:464.307587 8:192.192902 9:201.073105 10:296.218109 11:291.777985 12:254.988602 13:247.376999 14:243.571198 15:248.011292 
-100.0 0:30.3 1:30.3 2:30.3 3:30.8 4:471.284882 5:468.747681 6:464.307587 7:456.695984 8:201.073105 9:296.218109 10:291.777985 11:289.875092 12:247.376999 13:243.571198 14:248.011292 15:250.548492 
-100.0 0:30.3 1:30.3 2:30.8 3:30.8 4:468.747681 5:464.307587 6:456.695984 7:451.621582 8:296.218109 9:291.777985 10:289.875092 11:296.218109 12:243.571198 13:248.011292 14:250.548492 15:239.765396 
-100.0 0:30.3 1:30.8 2:30.8 3:30.7 4:464.307587 5:456.695984 6:451.621582 7:442.107086 8:291.777985 9:289.875092 10:296.218109 11:296.852386 12:248.011292 13:250.548492 14:239.765396 15:244.20549 
-100.0 0:30.8 1:30.8 2:30.7 3:30.7 4:456.695984 5:451.621582 6:442.107086 7:438.3013 8:289.875092 9:296.218109 10:296.852386 11:293.0466 12:250.548492 13:239.765396 14:244.20549 15:240.399704 
37.72430425067803 0:30.8 1:30.7 2:30.7 3:30.9 4:451.621582 5:442.107086 6:438.3013 7:441.472809 8:296.218109 9:296.852386 10:293.0466 11:289.240784 12:239.765396 13:244.20549 14:240.399704 15:242.302597 
100.0 0:30.7 1:30.7 2:30.9 3:30.9 4:442.107086 5:438.3013 6:441.472809 7:438.935608 8:296.852386 9:293.0466 10:289.240784 11:293.0466 12:244.20549 13:240.399704 14:242.302597 15:245.474091 
100.0 0:30.7 1:30.9 2:30.9 3:31.0 4:438.3013 5:441.472809 6:438.935608 7:440.838501 8:293.0466 9:289.240784 10:293.0466 11:289.875092 12:240.399704 13:242.302597 14:245.474091 15:338.081909 
100.0 0:30.9 1:30.9 2:31.0 3:31.0 4:441.472809 5:438.935608 6:440.838501 7:440.204193 8:289.240784 9:293.0466 10:289.875092 11:285.434998 12:242.302597 13:245.474091 14:338.081909 15:343.790588 
-100.0 0:30.9 1:31.0 2:31.0 3:31.0 4:438.935608 5:440.838501 6:440.204193 7:435.764099 8:293.0466 9:289.875092 10:285.434998 11:289.875092 12:245.474091 13:338.081909 14:343.790588 15:340.61911 
100.0 0:31.0 1:31.0 2:31.0 3:31.0 4:440.838501 5:440.204193 6:435.764099 7:438.3013 8:289.875092 9:285.434998 10:289.875092 11:289.240784 12:338.081909 13:343.790588 14:340.61911 15:334.276093 
-100.0 0:31.0 1:31.0 2:31.0 3:30.8 4:440.204193 5:435.764099 6:438.3013 7:442.107086 8:285.434998 9:289.875092 10:289.240784 11:284.80069 12:343.790588 13:340.61911 14:334.276093 15:341.887695 
-43.94687952112053 0:31.0 1:31.0 2:30.8 3:30.8 4:435.764099 5:438.3013 6:442.107086 7:450.352997 8:289.875092 9:289.240784 10:284.80069 11:286.069305 12:340.61911 13:334.276093 14:341.887695 15:336.178986 
100.0 0:31.0 1:30.8 2:30.8 3:31.0 4:438.3013 5:442.107086 6:450.352997 7:439.569885 8:289.240784 9:284.80069 10:286.069305 11:282.263489 12:334.276093 13:341.887695 14:336.178986 15:334.276093 
100.0 0:30.8 1:31.0 2:31.0 3:31.1 4:450.352997 5:439.569885 6:443.375702 7:445.912903 8:286.069305 9:282.263489 10:277.189087 11:274.017609 12:336.178986 13:334.276093 14:335.544708 15:333.641785 
100.0 0:31.0 1:31.0 2:31.1 3:31.1 4:439.569885 5:443.375702 6:445.912903 7:443.375702 8:282.263489 9:277.189087 10:274.017609 11:279.09201 12:334.276093 13:335.544708 14:333.641785 15:339.350494 
100.0 0:31.0 1:31.1 2:31.1 3:31.4 4:443.375702 5:445.912903 6:443.375702 7:445.278595 8:277.189087 9:274.017609 10:279.09201 11:272.748993 12:335.544708 13:333.641785 14:339.350494 15:343.156311 
-100.0 0:31.1 1:31.1 2:31.4 3:31.4 4:445.912903 5:443.375702 6:445.278595 7:440.838501 8:274.017609 9:279.09201 10:272.748993 11:275.286194 12:333.641785 13:339.350494 14:343.156311 15:339.350494 
-100.0 0:31.4 1:31.4 2:31.3 3:31.3 4:445.278595 5:440.838501 6:443.375702 7:437.666992 8:272.748993 9:275.286194 10:281.629211 11:374.237 12:343.156311 13:339.350494 14:335.544708 15:334.276093 
-100.0 0:31.4 1:31.3 2:31.3 3:31.3 4:440.838501 5:443.375702 6:437.666992 7:442.741394 8:275.286194 9:281.629211 10:374.237 11:379.945709 12:339.350494 13:335.544708 14:334.276093 15:331.104584 
100.0 0:31.3 1:31.3 2:31.3 3:31.3 4:443.375702 5:437.666992 6:442.741394 7:438.3013 8:281.629211 9:374.237 10:379.945709 11:377.408508 12:335.544708 13:334.276093 14:331.104584 15:326.66449 
100.0 0:31.3 1:31.3 2:31.3 3:31.4 4:437.666992 5:442.741394 6:438.3013 7:434.495483 8:374.237 9:379.945709 10:377.408508 11:371.699799 12:334.276093 13:331.104584 14:326.66449 15:329.835999 
-100.0 0:31.3 1:31.3 2:31.4 3:31.4 4:442.741394 5:438.3013 6:434.495483 7:431.324005 8:379.945709 9:377.408508 10:371.699799 11:374.237 12:331.104584 13:326.66449 14:329.835999 15:329.835999 
-100.0 0:31.3 1:31.4 2:31.4 3:31.5 4:438.3013 5:434.495483 6:431.324005 7:433.861206 8:377.408508 9:371.699799 10:374.237 11:370.431183 12:326.66449 13:329.835999 14:329.835999 15:319.052887 
-100.0 0:31.4 1:31.4 2:31.5 3:31.5 4:434.495483 5:431.324005 6:433.861206 7:433.861206 8:371.699799 9:374.237 10:370.431183 11:380.579987 12:329.835999 13:329.835999 14:319.052887 15:321.590088 
-72.96784643410223 0:31.4 1:31.5 2:31.5 3:31.6 4:431.324005 5:433.861206 6:433.861206 7:527.103271 8:374.237 9:370.431183 10:380.579987 11:379.311401 12:329.835999 13:319.052887 14:321.590088 15:316.515686 
100.0 0:31.5 1:31.5 2:31.6 3:31.6 4:433.861206 5:433.861206 6:527.103271 7:530.909119 8:370.431183 9:380.579987 10:379.311401 11:374.871307 12:319.052887 13:321.590088 14:316.515686 15:313.344208 
-24.74045274681374 0:31.6 1:31.6 2:31.6 3:31.6 4:530.909119 5:526.468994 6:525.834717 7:524.566101 8:374.871307 9:369.796906 10:362.819611 11:363.453888 12:313.344208 13:319.052887 14:312.075592 15:311.441284 
100.0 0:31.6 1:31.6 2:31.6 3:31.6 4:526.468994 5:525.834717 6:524.566101 7:525.834717 8:369.796906 9:362.819611 10:363.453888 11:357.110901 12:319.052887 13:312.075592 14:311.441284 15:308.904083 
100.0 0:31.6 1:31.6 2:31.6 3:31.6 4:525.834717 5:524.566101 6:525.834717 7:519.491699 8:362.819611 9:363.453888 10:357.110901 11:353.305084 12:312.075592 13:311.441284 14:308.904083 15:315.881409 
-100.0 0:31.6 1:31.6 2:31.6 3:31.6 4:524.566101 5:525.834717 6:519.491699 7:518.857422 8:363.453888 9:357.110901 10:353.305084 11:355.842285 12:311.441284 13:308.904083 14:315.881409 15:313.344208 
100.0 0:31.6 1:31.6 2:31.4 3:31.4 4:519.491699 5:518.857422 6:513.148682 7:513.148682 8:353.305084 9:355.842285 10:353.939392 11:347.596405 12:315.881409 13:313.344208 14:307.635498 15:308.269806 
-100.0 0:31.6 1:31.4 2:31.4 3:31.3 4:518.857422 5:513.148682 6:513.148682 7:518.223083 8:355.842285 9:353.939392 10:347.596405 11:349.499298 12:313.344208 13:307.635498 14:308.269806 15:311.441284 
-100.0 0:31.4 1:31.4 2:31.3 3:31.3 4:513.148682 5:513.148682 6:518.223083 7:509.977203 8:353.939392 9:347.596405 10:349.499298 11:350.133606 12:307.635498 13:308.269806 14:311.441284 15:306.366882 
100.0 0:31.4 1:31.3 2:31.3 3:31.1 4:513.148682 5:518.223083 6:509.977203 7:520.760315 8:347.596405 9:349.499298 10:350.133606 11:346.327789 12:308.269806 13:311.441284 14:306.366882 15:301.926788 
100.0 0:31.3 1:31.3 2:31.1 3:31.1 4:518.223083 5:509.977203 6:520.760315 7:508.708588 8:349.499298 9:350.133606 10:346.327789 11:339.350494 12:311.441284 13:306.366882 14:301.926788 15:308.904083 
-100.0 0:31.3 1:31.1 2:31.1 3:30.9 4:509.977203 5:520.760315 6:508.708588 7:508.07428 8:350.133606 9:346.327789 10:339.350494 11:339.350494 12:306.366882 13:301.926788 14:308.904083 15:308.904083 
100.0 0:31.1 1:31.1 2:30.9 3:30.9 4:520.760315 5:508.708588 6:508.07428 7:510.611481 8:346.327789 9:339.350494 10:339.350494 11:333.007507 12:301.926788 13:308.904083 14:308.904083 15:304.463989 
100.0 0:31.1 1:30.9 2:30.9 3:30.4 4:508.708588 5:508.07428 6:510.611481 7:506.805695 8:339.350494 9:339.350494 10:333.007507 11:333.007507 12:308.904083 13:308.904083 14:304.463989 15:308.269806 
100.0 0:30.9 1:30.9 2:30.4 3:30.4 4:508.07428 5:510.611481 6:506.805695 7:504.268494 8:339.350494 9:333.007507 10:333.007507 11:339.350494 12:308.904083 13:304.463989 14:308.269806 15:311.441284 
-100.0 0:30.9 1:30.4 2:30.4 3:30.3 4:510.611481 5:506.805695 6:504.268494 7:508.07428 8:333.007507 9:333.007507 10:339.350494 11:334.276093 12:304.463989 13:308.269806 14:311.441284 15:314.612793 
100.0 0:30.4 1:30.3 2:30.3 3:30.2 4:504.268494 5:508.07428 6:505.537109 7:505.537109 8:339.350494 9:334.276093 10:337.447601 11:336.813293 12:311.441284 13:314.612793 14:308.269806 15:309.538391 
100.0 0:30.3 1:30.3 2:30.2 3:30.2 4:508.07428 5:505.537109 6:505.537109 7:500.462708 8:334.276093 9:337.447601 10:336.813293 11:338.716187 12:314.612793 13:308.269806 14:309.538391 15:315.247101 
100.0 0:30.3 1:30.2 2:30.2 3:30.0 4:505.537109 5:505.537109 6:500.462708 7:497.291199 8:337.447601 9:336.813293 10:338.716187 11:337.447601 12:308.269806 13:309.538391 14:315.247101 15:312.7099 
-100.0 0:30.2 1:30.2 2:30.0 3:30.0 4:505.537109 5:500.462708 6:497.291199 7:497.291199 8:336.813293 9:338.716187 10:337.447601 11:338.716187 12:309.538391 13:315.247101 14:312.7099 15:314.612793 
100.0 0:30.0 1:30.0 2:29.8 3:29.8 4:497.291199 5:497.291199 6:492.216797 7:501.096985 8:337.447601 9:338.716187 10:332.373199 11:339.984802 12:312.7099 13:314.612793 14:311.441284 15:310.807007 
100.0 0:30.0 1:29.8 2:29.8 3:29.6 4:497.291199 5:492.216797 6:501.096985 7:490.313904 8:338.716187 9:332.373199 10:339.984802 11:335.544708 12:314.612793 13:311.441284 14:310.807007 15:315.247101 
-100.0 0:29.8 1:29.8 2:29.6 3:29.6 4:492.216797 5:501.096985 6:490.313904 7:487.776703 8:332.373199 9:339.984802 10:335.544708 11:336.813293 12:311.441284 13:310.807007 14:315.247101 15:315.247101 
-100.0 0:29.6 1:29.4 2:29.4 3:29.2 4:487.776703 5:486.508087 6:482.067993 7:483.336609 8:336.813293 9:337.447601 10:343.790588 11:340.61911 12:315.247101 13:305.098297 14:309.538391 15:310.172699 
100.0 0:29.4 1:29.4 2:29.2 3:29.2 4:486.508087 5:482.067993 6:483.336609 7:485.87381 8:337.447601 9:343.790588 10:340.61911 11:341.887695 12:305.098297 13:309.538391 14:310.172699 15:307.635498 
100.0 0:29.4 1:29.2 2:29.2 3:29.0 4:482.067993 5:483.336609 6:485.87381 7:482.702301 8:343.790588 9:340.61911 10:341.887695 11:344.424896 12:309.538391 13:310.172699 14:307.635498 15:315.247101 
100.0 0:29.2 1:29.2 2:29.0 3:29.0 4:483.336609 5:485.87381 6:482.702301 7:479.530792 8:340.61911 9:341.887695 10:344.424896 11:346.327789 12:310.172699 13:307.635498 14:315.247101 15:315.881409 
-100.0 0:29.2 1:29.0 2:29.0 3:28.7 4:485.87381 5:482.702301 6:479.530792 7:483.970886 8:341.887695 9:344.424896 10:346.327789 11:348.230682 12:307.635498 13:315.247101 14:315.881409 15:317.784302 
100.0 0:29.0 1:29.0 2:28.7 3:28.7 4:482.702301 5:479.530792 6:483.970886 7:390.72879 8:344.424896 9:346.327789 10:348.230682 11:348.86499 12:315.247101 13:315.881409 14:317.784302 15:314.612793 
100.0 0:28.7 1:28.7 2:28.5 3:28.5 4:483.970886 5:390.72879 6:390.094482 7:395.803192 8:348.230682 9:348.86499 10:353.305084 11:346.962097 12:317.784302 13:314.612793 14:319.687195 15:319.052887 
-100.0 0:28.5 1:28.5 2:28.4 3:28.4 4:390.094482 5:395.803192 6:390.72879 7:391.997406 8:353.305084 9:346.962097 10:350.767883 11:354.5737 12:319.687195 13:319.052887 14:322.224396 15:322.224396 
100.0 0:28.5 1:28.4 2:28.4 3:28.4 4:395.803192 5:390.72879 6:391.997406 7:394.534607 8:346.962097 9:350.767883 10:354.5737 11:264.503082 12:319.052887 13:322.224396 14:322.224396 15:319.687195 
-100.0 0:28.4 1:28.4 2:28.4 3:28.4 4:390.72879 5:391.997406 6:394.534607 7:294.949493 8:350.767883 9:354.5737 10:264.503082 11:258.160095 12:322.224396 13:322.224396 14:319.687195 15:322.858704 
100.0 0:28.4 1:28.4 2:28.4 3:28.1 4:391.997406 5:394.534607 6:294.949493 7:298.75531 8:354.5737 9:264.503082 10:258.160095 11:258.160095 12:322.224396 13:319.687195 14:322.858704 15:319.687195 
-100.0 0:28.4 1:28.4 2:28.1 3:28.1 4:394.534607 5:294.949493 6:298.75531 7:303.829712 8:264.503082 9:258.160095 10:258.160095 11:261.965912 12:319.687195 13:322.858704 14:319.687195 15:335.544708 
-100.0 0:28.4 1:28.1 2:28.1 3:27.4 4:294.949493 5:298.75531 6:303.829712 7:303.195404 8:258.160095 9:258.160095 10:261.965912 11:164.917999 12:322.858704 13:319.687195 14:335.544708 15:331.738892 
100.0 0:28.1 1:28.1 2:27.4 3:27.4 4:298.75531 5:303.829712 6:303.195404 7:307.00119 8:258.160095 9:261.965912 10:164.917999 11:165.552292 12:319.687195 13:335.544708 14:331.738892 15:331.104584 
100.0 0:28.1 1:27.4 2:27.4 3:27.0 4:303.829712 5:303.195404 6:307.00119 7:309.538391 8:261.965912 9:164.917999 10:165.552292 11:170.626694 12:335.544708 13:331.738892 14:331.104584 15:358.379486 
100.0 0:27.4 1:27.4 2:27.0 3:27.0 4:303.195404 5:307.00119 6:309.538391 7:313.344208 8:164.917999 9:165.552292 10:170.626694 11:176.969696 12:331.738892 13:331.104584 14:358.379486 15:361.550995 
-100.0 0:27.4 1:27.0 2:27.0 3:26.6 4:307.00119 5:309.538391 6:313.344208 7:226.445099 8:165.552292 9:170.626694 10:176.969696 11:176.335403 12:331.104584 13:358.379486 14:361.550995 15:365.356812 
-100.0 0:27.0 1:27.0 2:26.6 3:26.6 4:309.538391 5:313.344208 6:226.445099 7:219.467804 8:170.626694 9:176.969696 10:176.335403 11:183.312698 12:358.379486 13:361.550995 14:365.356812 15:266.406006 
-100.0 0:27.0 1:26.6 2:26.6 3:26.6 4:313.344208 5:226.445099 6:219.467804 7:227.079391 8:176.969696 9:176.335403 10:183.312698 11:179.506897 12:361.550995 13:365.356812 14:266.406006 15:274.017609 
-100.0 0:26.6 1:26.6 2:26.6 3:26.6 4:226.445099 5:219.467804 6:227.079391 7:225.176498 8:176.335403 9:183.312698 10:179.506897 11:188.3871 12:365.356812 13:266.406006 14:274.017609 15:180.141205 
-100.0 0:26.6 1:26.6 2:26.6 3:26.3 4:219.467804 5:227.079391 6:225.176498 7:226.445099 8:183.312698 9:179.506897 10:188.3871 11:188.3871 12:266.406006 13:274.017609 14:180.141205 15:177.604004 
-100.0 0:26.6 1:26.6 2:26.3 3:26.3 4:227.079391 5:225.176498 6:226.445099 7:232.788101 8:179.506897 9:188.3871 10:188.3871 11:185.849899 12:274.017609 13:180.141205 14:177.604004 15:177.604004 
100.0 0:26.3 1:26.3 2:26.1 3:26.1 4:226.445099 5:232.788101 6:237.862503 7:241.668304 8:188.3871 9:185.849899 10:179.506897 11:176.969696 12:177.604004 13:177.604004 14:171.895294 15:173.163895 
-100.0 0:26.3 1:26.1 2:26.1 3:25.8 4:232.788101 5:237.862503 6:241.668304 7:234.690994 8:185.849899 9:179.506897 10:176.969696 11:187.1185 12:177.604004 13:171.895294 14:173.163895 15:176.335403 
100.0 0:26.1 1:26.1 2:25.8 3:25.8 4:237.862503 5:241.668304 6:234.690994 7:237.862503 8:179.506897 9:176.969696 10:187.1185 11:173.798203 12:171.895294 13:173.163895 14:176.335403 15:171.895294 
100.0 0:25.8 1:25.8 2:25.7 3:25.7 4:234.690994 5:237.862503 6:225.810791 7:235.325302 8:187.1185 9:173.798203 10:186.484192 11:192.827194 12:176.335403 13:171.895294 14:192.827194 15:187.1185 
-100.0 0:25.8 1:25.7 2:25.7 3:25.7 4:237.862503 5:225.810791 6:235.325302 7:234.056702 8:173.798203 9:186.484192 10:192.827194 11:194.730103 12:171.895294 13:192.827194 14:187.1185 15:192.827194 
100.0 0:25.7 1:25.7 2:25.7 3:25.7 4:225.810791 5:235.325302 6:234.056702 7:227.079391 8:186.484192 9:192.827194 10:194.730103 11:190.924301 12:192.827194 13:187.1185 14:192.827194 15:183.946991 
100.0 0:25.7 1:25.7 2:25.7 3:25.7 4:235.325302 5:234.056702 6:227.079391 7:233.422394 8:192.827194 9:194.730103 10:190.924301 11:186.484192 12:187.1185 13:192.827194 14:183.946991 15:189.655701 
100.0 0:25.7 1:25.7 2:25.7 3:25.7 4:234.056702 5:227.079391 6:233.422394 7:230.885193 8:194.730103 9:190.924301 10:186.484192 11:190.289993 12:192.827194 13:183.946991 14:189.655701 15:190.924301 
-100.0 0:25.7 1:25.7 2:25.7 3:25.8 4:227.079391 5:233.422394 6:230.885193 7:236.593903 8:190.924301 9:186.484192 10:190.289993 11:201.073105 12:183.946991 13:189.655701 14:190.924301 15:195.364395 
-100.0 0:25.7 1:25.7 2:25.8 3:25.8 4:233.422394 5:230.885193 6:236.593903 7:225.810791 8:186.484192 9:190.289993 10:201.073105 11:195.364395 12:189.655701 13:190.924301 14:195.364395 15:185.849899 
-100.0 0:25.7 1:25.8 2:25.8 3:25.7 4:230.885193 5:236.593903 6:225.810791 7:224.542191 8:190.289993 9:201.073105 10:195.364395 11:190.924301 12:190.924301 13:195.364395 14:185.849899 15:188.3871 
100.0 0:25.8 1:25.8 2:25.7 3:25.7 4:236.593903 5:225.810791 6:224.542191 7:228.347992 8:201.073105 9:195.364395 10:190.924301 11:199.804504 12:195.364395 13:185.849899 14:188.3871 15:185.849899 
100.0 0:25.8 1:25.7 2:25.7 3:25.5 4:225.810791 5:224.542191 6:228.347992 7:227.079391 8:195.364395 9:190.924301 10:199.804504 11:209.953293 12:185.849899 13:188.3871 14:185.849899 15:195.998703 
-100.0 0:25.7 1:25.7 2:25.5 3:25.5 4:224.542191 5:228.347992 6:227.079391 7:223.27359 8:190.924301 9:199.804504 10:209.953293 11:197.267303 12:188.3871 13:185.849899 14:195.998703 15:203.610291 
-100.0 0:25.7 1:25.5 2:25.5 3:25.5 4:228.347992 5:227.079391 6:223.27359 7:223.27359 8:199.804504 9:209.953293 10:197.267303 11:204.244598 12:185.849899 13:195.998703 14:203.610291 15:189.655701 
100.0 0:25.5 1:25.5 2:25.5 3:25.5 4:227.079391 5:223.27359 6:223.27359 7:223.27359 8:209.953293 9:197.267303 10:204.244598 11:211.221893 12:195.998703 13:203.610291 14:189.655701 15:191.558594 
100.0 0:25.5 1:25.5 2:25.5 3:25.3 4:223.27359 5:223.27359 6:223.27359 7:173.798203 8:197.267303 9:204.244598 10:211.221893 11:206.781799 12:203.610291 13:189.655701 14:191.558594 15:199.804504 
100.0 0:25.5 1:25.5 2:25.3 3:25.3 4:223.27359 5:223.27359 6:173.798203 7:170.626694 8:204.244598 9:211.221893 10:206.781799 11:202.341705 12:189.655701 13:191.558594 14:199.804504 15:200.438797 
-100.0 0:25.5 1:25.3 2:25.3 3:25.2 4:223.27359 5:173.798203 6:170.626694 7:187.752792 8:211.221893 9:206.781799 10:202.341705 11:202.341705 12:191.558594 13:199.804504 14:200.438797 15:207.416092 
-100.0 0:25.3 1:25.3 2:25.2 3:25.2 4:173.798203 5:170.626694 6:187.752792 7:175.066803 8:206.781799 9:202.341705 10:202.341705 11:207.416092 12:199.804504 13:200.438797 14:207.416092 15:201.073105 
-100.0 0:25.3 1:25.2 2:25.2 3:25.1 4:170.626694 5:187.752792 6:175.066803 7:168.723801 8:202.341705 9:202.341705 10:207.416092 11:201.073105 12:200.438797 13:207.416092 14:201.073105 15:195.998703 
-100.0 0:25.2 1:25.2 2:25.1 3:25.1 4:187.752792 5:175.066803 6:168.723801 7:231.519501 8:202.341705 9:207.416092 10:201.073105 11:200.438797 12:207.416092 13:201.073105 14:195.998703 15:187.1185 
100.0 0:25.2 1:25.1 2:25.1 3:25.1 4:175.066803 5:168.723801 6:231.519501 7:233.422394 8:207.416092 9:201.073105 10:200.438797 11:195.998703 12:201.073105 13:195.998703 14:187.1185 15:185.849899 
100.0 0:25.1 1:25.1 2:25.1 3:25.1 4:168.723801 5:231.519501 6:233.422394 7:246.108398 8:201.073105 9:200.438797 10:195.998703 11:208.684692 12:195.998703 13:187.1185 14:185.849899 15:199.170197 
-100.0 0:25.1 1:25.1 2:25.0 3:25.0 4:233.422394 5:246.108398 6:240.399704 7:233.422394 8:195.998703 9:208.684692 10:213.124802 11:215.662003 12:185.849899 13:199.170197 14:195.998703 15:198.535904 
100.0 0:25.1 1:25.0 2:25.0 3:25.0 4:246.108398 5:240.399704 6:233.422394 7:233.422394 8:208.684692 9:213.124802 10:215.662003 11:202.341705 12:199.170197 13:195.998703 14:198.535904 15:185.849899 
100.0 0:25.0 1:25.0 2:25.0 3:25.0 4:240.399704 5:233.422394 6:233.422394 7:244.20549 8:213.124802 9:215.662003 10:202.341705 11:222.005005 12:195.998703 13:198.535904 14:185.849899 15:201.707397 
100.0 0:25.0 1:25.0 2:25.0 3:24.9 4:233.422394 5:233.422394 6:244.20549 7:245.474091 8:215.662003 9:202.341705 10:222.005005 11:206.147491 12:198.535904 13:185.849899 14:201.707397 15:200.438797 
-100.0 0:25.0 1:25.0 2:24.9 3:24.9 4:233.422394 5:244.20549 6:245.474091 7:243.571198 8:202.341705 9:222.005005 10:206.147491 11:202.975998 12:185.849899 13:201.707397 14:200.438797 15:203.610291 
100.0 0:25.0 1:24.9 2:24.9 3:24.9 4:244.20549 5:245.474091 6:243.571198 7:243.571198 8:222.005005 9:206.147491 10:202.975998 11:210.587601 12:201.707397 13:200.438797 14:203.610291 15:197.901596 
-100.0 0:24.9 1:24.9 2:24.9 3:24.9 4:245.474091 5:243.571198 6:243.571198 7:254.354294 8:206.147491 9:202.975998 10:210.587601 11:204.244598 12:200.438797 13:203.610291 14:197.901596 15:205.513199 
-100.0 0:24.9 1:24.9 2:24.9 3:24.9 4:243.571198 5:243.571198 6:254.354294 7:254.988602 8:202.975998 9:210.587601 10:204.244598 11:215.027695 12:203.610291 13:197.901596 14:205.513199 15:139.546005 
-100.0 0:24.9 1:24.9 2:24.9 3:24.9 4:243.571198 5:254.354294 6:254.988602 7:256.257202 8:210.587601 9:204.244598 10:215.027695 11:208.0504 12:197.901596 13:205.513199 14:139.546005 15:154.134903 
-100.0 0:24.9 1:24.9 2:24.9 3:25.0 4:254.354294 5:254.988602 6:256.257202 7:260.697296 8:204.244598 9:215.027695 10:208.0504 11:214.393402 12:205.513199 13:139.546005 14:154.134903 15:142.717499 
100.0 0:24.9 1:24.9 2:25.0 3:25.0 4:254.988602 5:256.257202 6:260.697296 7:260.697296 8:215.027695 9:208.0504 10:214.393402 11:201.707397 12:139.546005 13:154.134903 14:142.717499 15:133.837296 
100.0 0:24.9 1:25.0 2:25.0 3:25.1 4:256.257202 5:260.697296 6:260.697296 7:261.965912 8:208.0504 9:214.393402 10:201.707397 11:204.878891 12:154.134903 13:142.717499 14:133.837296 15:142.717499 
-100.0 0:25.0 1:25.0 2:25.1 3:25.1 4:260.697296 5:260.697296 6:261.965912 7:253.720001 8:214.393402 9:201.707397 10:204.878891 11:242.936905 12:142.717499 13:133.837296 14:142.717499 15:154.769196 
-100.0 0:25.0 1:25.1 2:25.1 3:25.2 4:260.697296 5:261.965912 6:253.720001 7:258.794403 8:201.707397 9:204.878891 10:242.936905 11:216.930603 12:133.837296 13:142.717499 14:154.769196 15:146.5233 
100.0 0:25.1 1:25.1 2:25.2 3:25.2 4:261.965912 5:253.720001 6:258.794403 7:248.011292 8:204.878891 9:242.936905 10:216.930603 11:204.878891 12:142.717499 13:154.769196 14:146.5233 15:143.351791 
-100.0 0:25.1 1:25.2 2:25.2 3:25.3 4:253.720001 5:258.794403 6:248.011292 7:265.13739 8:242.936905 9:216.930603 10:204.878891 11:220.736404 12:154.769196 13:146.5233 14:143.351791 15:149.694794 
-100.0 0:25.2 1:25.3 2:25.3 3:25.2 4:248.011292 5:265.13739 6:268.943207 7:256.89151 8:204.878891 9:220.736404 10:209.953293 11:202.975998 12:143.351791 13:149.694794 14:143.351791 15:145.2547 
100.0 0:25.3 1:25.3 2:25.2 3:25.2 4:265.13739 5:268.943207 6:256.89151 7:265.771698 8:220.736404 9:209.953293 10:202.975998 11:212.490494 12:149.694794 13:143.351791 14:145.2547 15:136.374496 
-100.0 0:25.3 1:25.2 2:25.2 3:25.3 4:268.943207 5:256.89151 6:265.771698 7:264.503082 8:209.953293 9:202.975998 10:212.490494 11:230.2509 12:143.351791 13:145.2547 14:136.374496 15:143.986099 
100.0 0:25.2 1:25.2 2:25.3 3:25.3 4:256.89151 5:265.771698 6:264.503082 7:270.211792 8:202.975998 9:212.490494 10:230.2509 11:211.221893 12:145.2547 13:136.374496 14:143.986099 15:135.105896 
100.0 0:25.2 1:25.3 2:25.3 3:25.4 4:265.771698 5:264.503082 6:270.211792 7:246.742691 8:212.490494 9:230.2509 10:211.221893 11:228.347992 12:136.374496 13:143.986099 14:135.105896 15:149.694794 
100.0 0:25.3 1:25.4 2:25.4 3:25.4 4:270.211792 5:246.742691 6:255.622894 7:267.674591 8:211.221893 9:228.347992 10:228.347992 11:232.788101 12:135.105896 13:149.694794 14:156.672104 15:151.597702 
-100.0 0:25.4 1:25.4 2:25.4 3:25.4 4:246.742691 5:255.622894 6:267.674591 7:255.622894 8:228.347992 9:228.347992 10:232.788101 11:235.325302 12:149.694794 13:156.672104 14:151.597702 15:159.209305 
-100.0 0:25.4 1:25.4 2:25.4 3:25.3 4:255.622894 5:267.674591 6:255.622894 7:268.943207 8:228.347992 9:232.788101 10:235.325302 11:222.639297 12:156.672104 13:151.597702 14:159.209305 15:155.403503 
100.0 0:25.4 1:25.4 2:25.3 3:25.3 4:267.674591 5:255.622894 6:268.943207 7:270.211792 8:232.788101 9:235.325302 10:222.639297 11:225.810791 12:151.597702 13:159.209305 14:155.403503 15:144.620392 
100.0 0:25.4 1:25.3 2:25.3 3:25.2 4:255.622894 5:268.943207 6:270.211792 7:261.331604 8:235.325302 9:222.639297 10:225.810791 11:242.936905 12:159.209305 13:155.403503 14:144.620392 15:164.283691 
100.0 0:25.3 1:25.3 2:25.2 3:25.2 4:268.943207 5:270.211792 6:261.331604 7:280.360596 8:222.639297 9:225.810791 10:242.936905 11:246.742691 12:155.403503 13:144.620392 14:164.283691 15:159.843597 
100.0 0:25.3 1:25.2 2:25.2 3:25.1 4:270.211792 5:261.331604 6:280.360596 7:268.308899 8:225.810791 9:242.936905 10:246.742691 11:246.742691 12:144.620392 13:164.283691 14:159.843597 15:164.917999 
100.0 0:25.2 1:25.2 2:25.1 3:25.1 4:261.331604 5:280.360596 6:268.308899 7:272.748993 8:242.936905 9:246.742691 10:246.742691 11:248.011292 12:164.283691 13:159.843597 14:164.917999 15:165.552292 
-100.0 0:25.2 1:25.1 2:25.1 3:25.0 4:280.360596 5:268.308899 6:272.748993 7:298.75531 8:246.742691 9:246.742691 10:248.011292 11:245.474091 12:159.843597 13:164.917999 14:165.552292 15:170.626694 
-100.0 0:25.1 1:25.1 2:25.0 3:25.0 4:268.308899 5:272.748993 6:298.75531 7:296.852386 8:246.742691 9:248.011292 10:245.474091 11:256.257202 12:164.917999 13:165.552292 14:170.626694 15:159.843597 
100.0 0:25.1 1:25.0 2:25.0 3:24.9 4:272.748993 5:298.75531 6:296.852386 7:290.509399 8:248.011292 9:245.474091 10:256.257202 11:242.936905 12:165.552292 13:170.626694 14:159.843597 15:149.694794 
-100.0 0:25.0 1:25.0 2:24.9 3:24.9 4:298.75531 5:296.852386 6:290.509399 7:300.658203 8:245.474091 9:256.257202 10:242.936905 11:244.20549 12:170.626694 13:159.843597 14:149.694794 15:164.283691 
-100.0 0:25.0 1:24.9 2:24.9 3:25.0 4:296.852386 5:290.509399 6:300.658203 7:300.023895 8:256.257202 9:242.936905 10:244.20549 11:239.765396 12:159.843597 13:149.694794 14:164.283691 15:153.500595 
100.0 0:24.9 1:24.9 2:25.0 3:25.0 4:290.509399 5:300.658203 6:300.023895 7:310.172699 8:242.936905 9:244.20549 10:239.765396 11:241.668304 12:149.694794 13:164.283691 14:153.500595 15:139.546005 
100.0 0:24.9 1:25.0 2:25.0 3:25.0 4:300.658203 5:300.023895 6:310.172699 7:300.023895 8:244.20549 9:239.765396 10:241.668304 11:241.668304 12:164.283691 13:153.500595 14:139.546005 15:163.015091 
-100.0 0:25.0 1:25.0 2:25.0 3:25.0 4:300.023895 5:310.172699 6:300.023895 7:303.829712 8:239.765396 9:241.668304 10:241.668304 11:251.1828 12:153.500595 13:139.546005 14:163.015091 15:169.992401 
-100.0 0:25.0 1:25.0 2:25.0 3:25.0 4:310.172699 5:300.023895 6:303.829712 7:303.195404 8:241.668304 9:241.668304 10:251.1828 11:235.325302 12:139.546005 13:163.015091 14:169.992401 15:151.597702 
100.0 0:25.0 1:25.0 2:25.0 3:25.0 4:300.023895 5:303.829712 6:303.195404 7:298.121002 8:241.668304 9:251.1828 10:235.325302 11:242.302597 12:163.015091 13:169.992401 14:151.597702 15:151.597702 
-100.0 0:25.0 1:25.0 2:25.0 3:25.1 4:303.829712 5:303.195404 6:298.121002 7:303.195404 8:251.1828 9:235.325302 10:242.302597 11:255.622894 12:169.992401 13:151.597702 14:151.597702 15:169.992401 
-100.0 0:25.0 1:25.0 2:25.1 3:25.1 4:303.195404 5:298.121002 6:303.195404 7:311.441284 8:235.325302 9:242.302597 10:255.622894 11:251.817093 12:151.597702 13:151.597702 14:169.992401 15:156.672104 
-100.0 0:25.0 1:25.1 2:25.1 3:25.1 4:298.121002 5:303.195404 6:311.441284 7:294.949493 8:242.302597 9:255.622894 10:251.817093 11:248.011292 12:151.597702 13:169.992401 14:156.672104 15:119.882698 
-100.0 0:25.1 1:25.1 2:25.1 3:25.1 4:303.195404 5:311.441284 6:294.949493 7:302.561096 8:255.622894 9:251.817093 10:248.011292 11:235.959595 12:169.992401 13:156.672104 14:119.882698 15:101.487999 
100.0 0:25.1 1:25.1 2:25.1 3:25.1 4:311.441284 5:294.949493 6:302.561096 7:306.366882 8:251.817093 9:248.011292 10:235.959595 11:242.936905 12:156.672104 13:119.882698 14:101.487999 15:107.831001 
-100.0 0:25.1 1:25.1 2:25.1 3:25.1 4:294.949493 5:302.561096 6:306.366882 7:307.00119 8:248.011292 9:235.959595 10:242.936905 11:256.257202 12:119.882698 13:101.487999 14:107.831001 15:112.271095 
-100.0 0:25.1 1:25.1 2:25.0 3:25.0 4:306.366882 5:307.00119 6:312.075592 7:303.195404 8:242.936905 9:256.257202 10:246.108398 11:248.011292 12:107.831001 13:112.271095 14:105.928101 15:107.196701 
100.0 0:25.1 1:25.0 2:25.0 3:25.0 4:307.00119 5:312.075592 6:303.195404 7:312.7099 8:256.257202 9:246.108398 10:248.011292 11:244.839798 12:112.271095 13:105.928101 14:107.196701 15:102.122299 
-100.0 0:25.0 1:25.0 2:25.0 3:25.0 4:312.075592 5:303.195404 6:312.7099 7:319.052887 8:246.108398 9:248.011292 10:244.839798 11:238.496796 12:105.928101 13:107.196701 14:102.122299 15:116.076897 
-100.0 0:25.0 1:25.0 2:25.0 3:24.8 4:303.195404 5:312.7099 6:319.052887 7:315.881409 8:248.011292 9:244.839798 10:238.496796 11:239.765396 12:107.196701 13:102.122299 14:116.076897 15:107.831001 
-100.0 0:25.0 1:25.0 2:24.8 3:24.8 4:312.7099 5:319.052887 6:315.881409 7:305.732605 8:244.839798 9:238.496796 10:239.765396 11:237.228195 12:102.122299 13:116.076897 14:107.831001 15:103.3909 
100.0 0:25.0 1:24.8 2:24.8 3:24.7 4:319.052887 5:315.881409 6:305.732605 7:308.904083 8:238.496796 9:239.765396 10:237.228195 11:230.2509 12:116.076897 13:107.831001 14:103.3909 15:93.242096 
100.0 0:24.8 1:24.8 2:24.7 3:24.7 4:315.881409 5:305.732605 6:308.904083 7:315.881409 8:239.765396 9:237.228195 10:230.2509 11:237.862503 12:107.831001 13:103.3909 14:93.242096 15:105.2938 
100.0 0:24.8 1:24.7 2:24.7 3:24.7 4:305.732605 5:308.904083 6:315.881409 7:303.195404 8:237.228195 9:230.2509 10:237.862503 11:242.302597 12:103.3909 13:93.242096 14:105.2938 15:110.368202 
-100.0 0:24.7 1:24.7 2:24.7 3:24.7 4:308.904083 5:315.881409 6:303.195404 7:305.732605 8:230.2509 9:237.862503 10:242.302597 11:236.593903 12:93.242096 13:105.2938 14:110.368202 15:119.248398 
100.0 0:24.7 1:24.7 2:24.7 3:24.6 4:315.881409 5:303.195404 6:305.732605 7:306.366882 8:237.862503 9:242.302597 10:236.593903 11:227.713699 12:105.2938 13:110.368202 14:119.248398 15:95.779297 
100.0 0:24.7 1:24.7 2:24.6 3:24.6 4:303.195404 5:305.732605 6:306.366882 7:301.926788 8:242.302597 9:236.593903 10:227.713699 11:236.593903 12:110.368202 13:119.248398 14:95.779297 15:110.368202 
100.0 0:24.7 1:24.6 2:24.6 3:24.5 4:305.732605 5:306.366882 6:301.926788 7:323.493011 8:236.593903 9:227.713699 10:236.593903 11:248.011292 12:119.248398 13:95.779297 14:110.368202 15:121.151299 
-100.0 0:24.6 1:24.6 2:24.5 3:24.5 4:306.366882 5:301.926788 6:323.493011 7:308.269806 8:227.713699 9:236.593903 10:248.011292 11:228.347992 12:95.779297 13:110.368202 14:121.151299 15:127.494301 
-100.0 0:24.6 1:24.5 2:24.5 3:24.4 4:301.926788 5:323.493011 6:308.269806 7:305.098297 8:236.593903 9:248.011292 10:228.347992 11:234.690994 12:110.368202 13:121.151299 14:127.494301 15:111.002502 
-100.0 0:24.5 1:24.5 2:24.4 3:24.4 4:323.493011 5:308.269806 6:305.098297 7:312.7099 8:248.011292 9:228.347992 10:234.690994 11:214.393402 12:121.151299 13:127.494301 14:111.002502 15:97.682198 
100.0 0:24.5 1:24.4 2:24.4 3:24.3 4:308.269806 5:305.098297 6:312.7099 7:328.567383 8:228.347992 9:234.690994 10:214.393402 11:240.399704 12:127.494301 13:111.002502 14:97.682198 15:95.144997 
100.0 0:24.4 1:24.4 2:24.3 3:24.3 4:305.098297 5:312.7099 6:328.567383 7:319.052887 8:234.690994 9:214.393402 10:240.399704 11:231.519501 12:111.002502 13:97.682198 14:95.144997 15:107.831001 
-86.11097800559591 0:24.4 1:24.3 2:24.3 3:24.2 4:312.7099 5:328.567383 6:319.052887 7:307.00119 8:214.393402 9:240.399704 10:231.519501 11:237.862503 12:97.682198 13:95.144997 14:107.831001 15:116.711197 
100.0 0:24.3 1:24.3 2:24.2 3:24.2 4:328.567383 5:319.052887 6:307.00119 7:316.515686 8:240.399704 9:231.519501 10:237.862503 11:235.959595 12:95.144997 13:107.831001 14:116.711197 15:109.099602 
100.0 0:24.3 1:24.2 2:24.2 3:24.1 4:319.052887 5:307.00119 6:316.515686 7:308.269806 8:231.519501 9:237.862503 10:235.959595 11:232.788101 12:107.831001 13:116.711197 14:109.099602 15:119.882698 
100.0 0:24.2 1:24.2 2:24.1 3:24.1 4:307.00119 5:316.515686 6:308.269806 7:312.075592 8:237.862503 9:235.959595 10:232.788101 11:242.302597 12:116.711197 13:109.099602 14:119.882698 15:136.374496 
-100.0 0:24.2 1:24.1 2:24.1 3:24.1 4:316.515686 5:308.269806 6:312.075592 7:307.635498 8:235.959595 9:232.788101 10:242.302597 11:239.765396 12:109.099602 13:119.882698 14:136.374496 15:159.209305 
100.0 0:24.1 1:24.1 2:24.1 3:24.1 4:308.269806 5:312.075592 6:307.635498 7:307.00119 8:232.788101 9:242.302597 10:239.765396 11:169.358093 12:119.882698 13:136.374496 14:159.209305 15:145.2547 
100.0 0:24.0 1:24.0 2:24.0 3:24.0 4:300.658203 5:302.561096 6:308.269806 7:309.538391 8:129.397202 9:88.802002 10:77.384598 11:76.750298 12:169.992401 13:155.403503 14:149.694794 15:146.5233 
100.0 0:24.0 1:24.0 2:24.0 3:23.9 4:302.561096 5:308.269806 6:309.538391 7:307.00119 8:88.802002 9:77.384598 10:76.750298 11:76.750298 12:155.403503 13:149.694794 14:146.5233 15:147.791901 
100.0 0:24.0 1:24.0 2:23.9 3:23.9 4:308.269806 5:309.538391 6:307.00119 7:324.761597 8:77.384598 9:76.750298 10:76.750298 11:74.213097 12:149.694794 13:146.5233 14:147.791901 15:150.963394 
-100.0 0:24.0 1:23.9 2:23.9 3:23.9 4:309.538391 5:307.00119 6:324.761597 7:310.172699 8:76.750298 9:76.750298 10:74.213097 11:91.339203 12:146.5233 13:147.791901 14:150.963394 15:167.4552 
100.0 0:23.9 1:23.9 2:23.9 3:23.9 4:307.00119 5:324.761597 6:310.172699 7:318.41861 8:76.750298 9:74.213097 10:91.339203 11:81.824699 12:147.791901 13:150.963394 14:167.4552 15:152.866302 
100.0 0:23.9 1:23.9 2:23.9 3:23.9 4:324.761597 5:310.172699 6:318.41861 7:310.172699 8:74.213097 9:91.339203 10:81.824699 11:91.339203 12:150.963394 13:167.4552 14:152.866302 15:158.574997 
100.0 0:23.9 1:23.9 2:23.9 3:23.9 4:310.172699 5:318.41861 6:310.172699 7:303.195404 8:91.339203 9:81.824699 10:91.339203 11:44.401001 12:167.4552 13:152.866302 14:158.574997 15:168.089493 
-100.0 0:23.9 1:23.9 2:23.9 3:23.9 4:318.41861 5:310.172699 6:303.195404 7:312.7099 8:81.824699 9:91.339203 10:44.401001 11:40.5952 12:152.866302 13:158.574997 14:168.089493 15:163.015091 
100.0 0:23.9 1:23.9 2:23.9 3:23.9 4:310.172699 5:303.195404 6:312.7099 7:298.121002 8:91.339203 9:44.401001 10:40.5952 11:32.3493 12:158.574997 13:168.089493 14:163.015091 15:147.157593 
100.0 0:23.9 1:23.9 2:23.9 3:23.9 4:303.195404 5:312.7099 6:298.121002 7:303.195404 8:44.401001 9:40.5952 10:32.3493 11:39.960899 12:168.089493 13:163.015091 14:147.157593 15:152.231995 
100.0 0:23.9 1:23.9 2:23.9 3:24.0 4:298.121002 5:303.195404 6:284.80069 7:267.674591 8:32.3493 9:39.960899 10:43.132401 11:31.0807 12:147.157593 13:152.231995 14:152.866302 15:149.060501 
0.014740254369748386 0:23.9 1:23.9 2:24.0 3:24.0 4:303.195404 5:284.80069 6:267.674591 7:267.040283 8:39.960899 9:43.132401 10:31.0807 11:34.252201 12:152.231995 13:152.866302 14:149.060501 15:165.552292 
100.0 0:23.9 1:24.0 2:24.0 3:24.1 4:284.80069 5:267.674591 6:267.040283 7:253.085693 8:43.132401 9:31.0807 10:34.252201 11:24.7377 12:152.866302 13:149.060501 14:165.552292 15:156.037796 
-100.0 0:24.0 1:24.0 2:24.1 3:24.1 4:267.674591 5:267.040283 6:253.085693 7:253.085693 8:31.0807 9:34.252201 10:24.7377 11:38.692299 12:149.060501 13:165.552292 14:156.037796 15:157.306396 
-100.0 0:24.0 1:24.1 2:24.1 3:24.3 4:267.040283 5:253.085693 6:253.085693 7:252.451401 8:34.252201 9:24.7377 10:38.692299 11:40.5952 12:165.552292 13:156.037796 14:157.306396 15:152.866302 
100.0 0:24.1 1:24.1 2:24.3 3:24.3 4:253.085693 5:253.085693 6:252.451401 7:225.810791 8:24.7377 9:38.692299 10:40.5952 11:46.303898 12:156.037796 13:157.306396 14:152.866302 15:147.791901 
-100.0 0:24.1 1:24.3 2:24.3 3:24.5 4:253.085693 5:252.451401 6:225.810791 7:203.610291 8:38.692299 9:40.5952 10:46.303898 11:35.520798 12:157.306396 13:152.866302 14:147.791901 15:156.037796 
-100.0 0:24.3 1:24.3 2:24.5 3:24.5 4:252.451401 5:225.810791 6:203.610291 7:217.564896 8:40.5952 9:46.303898 10:35.520798 11:30.4464 12:152.866302 13:147.791901 14:156.037796 15:144.620392 
100.0 0:24.3 1:24.5 2:24.5 3:24.7 4:225.810791 5:203.610291 6:217.564896 7:208.684692 8:46.303898 9:35.520798 10:30.4464 11:31.0807 12:147.791901 13:156.037796 14:144.620392 15:143.986099 
-100.0 0:24.5 1:24.5 2:24.7 3:24.7 4:203.610291 5:217.564896 6:208.684692 7:217.564896 8:35.520798 9:30.4464 10:31.0807 11:40.5952 12:156.037796 13:144.620392 14:143.986099 15:156.037796 
100.0 0:24.5 1:24.7 2:24.7 3:24.8 4:217.564896 5:208.684692 6:217.564896 7:186.484192 8:30.4464 9:31.0807 10:40.5952 11:40.5952 12:144.620392 13:143.986099 14:156.037796 15:145.2547 
100.0 0:24.7 1:24.7 2:24.8 3:24.8 4:208.684692 5:217.564896 6:186.484192 7:207.416092 8:31.0807 9:40.5952 10:40.5952 11:34.252201 12:143.986099 13:156.037796 14:145.2547 15:159.209305 
-100.0 0:24.7 1:24.8 2:24.8 3:25.1 4:217.564896 5:186.484192 6:207.416092 7:190.924301 8:40.5952 9:40.5952 10:34.252201 11:34.886501 12:156.037796 13:145.2547 14:159.209305 15:157.306396 
-100.0 0:24.8 1:24.8 2:25.1 3:25.1 4:186.484192 5:207.416092 6:190.924301 7:204.878891 8:40.5952 9:34.252201 10:34.886501 11:39.326599 12:145.2547 13:159.209305 14:157.306396 15:131.934402 
-100.0 0:24.8 1:25.1 2:25.1 3:25.3 4:207.416092 5:190.924301 6:204.878891 7:192.827194 8:34.252201 9:34.886501 10:39.326599 11:30.4464 12:159.209305 13:157.306396 14:131.934402 15:107.831001 
100.0 0:25.1 1:25.1 2:25.3 3:25.3 4:190.924301 5:204.878891 6:192.827194 7:140.814606 8:34.886501 9:39.326599 10:30.4464 11:32.3493 12:157.306396 13:131.934402 14:107.831001 15:115.442596 
-100.0 0:25.1 1:25.3 2:25.3 3:25.7 4:204.878891 5:192.827194 6:140.814606 7:131.300095 8:39.326599 9:30.4464 10:32.3493 11:41.2295 12:131.934402 13:107.831001 14:115.442596 15:119.248398 
100.0 0:25.3 1:25.3 2:25.7 3:25.7 4:192.827194 5:140.814606 6:131.300095 7:126.2257 8:30.4464 9:32.3493 10:41.2295 11:26.6406 12:107.831001 13:115.442596 14:119.248398 15:111.636795 
100.0 0:25.7 1:25.7 2:25.9 3:25.9 4:131.300095 5:126.2257 6:58.355598 7:19.6633 8:41.2295 9:26.6406 10:39.326599 11:32.983601 12:119.248398 13:111.636795 14:116.711197 15:116.076897 
100.0 0:25.7 1:25.9 2:25.9 3:26.2 4:126.2257 5:58.355598 6:19.6633 7:19.028999 8:26.6406 9:39.326599 10:32.983601 11:36.155098 12:111.636795 13:116.711197 14:116.076897 15:118.614098 
-31.86762138702974 0:25.9 1:25.9 2:26.2 3:26.2 4:58.355598 5:19.6633 6:19.028999 7:7.6116 8:39.326599 9:32.983601 10:36.155098 11:52.6469 12:116.711197 13:116.076897 14:118.614098 15:119.882698 
100.0 0:25.9 1:26.2 2:26.2 3:26.4 4:19.6633 5:19.028999 6:7.6116 7:10.7831 8:32.983601 9:36.155098 10:52.6469 11:52.0126 12:116.076897 13:118.614098 14:119.882698 15:116.711197 
100.0 0:26.2 1:26.2 2:26.4 3:26.4 4:19.028999 5:7.6116 6:10.7831 7:3.1715 8:36.155098 9:52.6469 10:52.0126 11:57.721298 12:118.614098 13:119.882698 14:116.711197 15:123.688499 
100.0 0:26.2 1:26.4 2:26.4 3:26.8 4:7.6116 5:10.7831 6:3.1715 7:6.9773 8:52.6469 9:52.0126 10:57.721298 11:40.5952 12:119.882698 13:116.711197 14:123.688499 15:119.882698 
-100.0 0:26.4 1:26.4 2:26.8 3:26.8 4:10.7831 5:3.1715 6:6.9773 7:9.5145 8:52.0126 9:57.721298 10:40.5952 11:52.0126 12:116.711197 13:123.688499 14:119.882698 15:123.688499 
-100.0 0:26.4 1:26.8 2:26.8 3:26.9 4:3.1715 5:6.9773 6:9.5145 7:14.5889 8:57.721298 9:40.5952 10:52.0126 11:44.401001 12:123.688499 13:119.882698 14:123.688499 15:115.442596 
-100.0 0:26.8 1:26.9 2:26.9 3:26.9 4:9.5145 5:14.5889 6:1.9029 7:6.343 8:52.0126 9:44.401001 10:31.0807 11:36.155098 12:123.688499 13:115.442596 14:113.539696 15:112.271095 
100.0 0:26.9 1:26.9 2:26.9 3:26.9 4:14.5889 5:1.9029 6:6.343 7:10.7831 8:44.401001 9:31.0807 10:36.155098 11:30.4464 12:115.442596 13:113.539696 14:112.271095 15:104.0252 
-100.0 0:26.9 1:26.9 2:26.9 3:27.2 4:1.9029 5:6.343 6:10.7831 7:0.6343 8:31.0807 9:36.155098 10:30.4464 11:32.983601 12:113.539696 13:112.271095 14:104.0252 15:111.002502 
100.0 0:26.9 1:27.2 2:27.2 3:27.4 4:10.7831 5:0.6343 6:4.4401 7:8.880199 8:30.4464 9:32.983601 10:30.4464 11:38.057999 12:104.0252 13:111.002502 14:95.779297 15:100.853699 
-100.0 0:27.2 1:27.2 2:27.4 3:27.4 4:0.6343 5:4.4401 6:8.880199 7:23.469099 8:32.983601 9:30.4464 10:38.057999 11:41.2295 12:111.002502 13:95.779297 14:100.853699 15:102.756599 
100.0 0:27.2 1:27.4 2:27.4 3:27.7 4:4.4401 5:8.880199 6:23.469099 7:18.394699 8:30.4464 9:38.057999 10:41.2295 11:41.2295 12:95.779297 13:100.853699 14:102.756599 15:93.876396 
100.0 0:27.4 1:27.4 2:27.7 3:27.7 4:8.880199 5:23.469099 6:18.394699 7:17.760399 8:38.057999 9:41.2295 10:41.2295 11:26.0063 12:100.853699 13:102.756599 14:93.876396 15:108.465302 
-100.0 0:27.4 1:27.7 2:27.7 3:27.7 4:23.469099 5:18.394699 6:17.760399 7:26.0063 8:41.2295 9:41.2295 10:26.0063 11:23.469099 12:102.756599 13:93.876396 14:108.465302 15:121.151299 
-100.0 0:27.7 1:27.7 2:27.7 3:27.7 4:18.394699 5:17.760399 6:26.0063 7:30.4464 8:41.2295 9:26.0063 10:23.469099 11:19.028999 12:93.876396 13:108.465302 14:121.151299 15:106.562401 
-100.0 0:27.7 1:27.7 2:27.7 3:27.9 4:17.760399 5:26.0063 6:30.4464 7:29.812099 8:26.0063 9:23.469099 10:19.028999 11:49.475399 12:108.465302 13:121.151299 14:106.562401 15:104.6595 
-100.0 0:27.7 1:27.7 2:27.9 3:27.9 4:26.0063 5:30.4464 6:29.812099 7:22.834801 8:23.469099 9:19.028999 10:49.475399 11:64.698601 12:121.151299 13:106.562401 14:104.6595 15:95.144997 
100.0 0:27.7 1:27.9 2:27.9 3:28.0 4:30.4464 5:29.812099 6:22.834801 7:41.2295 8:19.028999 9:49.475399 10:64.698601 11:45.669601 12:106.562401 13:104.6595 14:95.144997 15:87.533401 
-100.0 0:27.9 1:27.9 2:28.0 3:28.0 4:29.812099 5:22.834801 6:41.2295 7:38.057999 8:49.475399 9:64.698601 10:45.669601 11:62.1614 12:104.6595 13:95.144997 14:87.533401 15:96.413597 
100.0 0:27.9 1:28.0 2:28.0 3:27.7 4:22.834801 5:41.2295 6:38.057999 7:19.6633 8:64.698601 9:45.669601 10:62.1614 11:61.5271 12:95.144997 13:87.533401 14:96.413597 15:86.899101 
-17.56060415124306 0:28.0 1:28.0 2:27.7 3:27.7 4:41.2295 5:38.057999 6:19.6633 7:25.372 8:45.669601 9:62.1614 10:61.5271 11:57.721298 12:87.533401 13:96.413597 14:86.899101 15:92.607796 
100.0 0:28.0 1:27.7 2:27.7 3:27.7 4:38.057999 5:19.6633 6:25.372 7:33.617901 8:62.1614 9:61.5271 10:57.721298 11:47.572498 12:96.413597 13:86.899101 14:92.607796 15:90.704903 
-100.0 0:27.7 1:27.7 2:27.7 3:27.7 4:19.6633 5:25.372 6:33.617901 7:36.155098 8:61.5271 9:57.721298 10:47.572498 11:81.824699 12:86.899101 13:92.607796 14:90.704903 15:98.316498 
-100.0 0:27.7 1:27.7 2:27.7 3:28.0 4:25.372 5:33.617901 6:36.155098 7:20.9319 8:57.721298 9:47.572498 10:81.824699 11:94.510696 12:92.607796 13:90.704903 14:98.316498 15:83.0933 
-100.0 0:27.7 1:27.7 2:28.0 3:28.0 4:33.617901 5:36.155098 6:20.9319 7:26.6406 8:47.572498 9:81.824699 10:94.510696 11:95.144997 12:90.704903 13:98.316498 14:83.0933 15:74.847397 
100.0 0:27.7 1:28.0 2:28.0 3:28.5 4:36.155098 5:20.9319 6:26.6406 7:49.475399 8:81.824699 9:94.510696 10:95.144997 11:146.5233 12:98.316498 13:83.0933 14:74.847397 15:74.213097 
-100.0 0:28.0 1:28.0 2:28.5 3:28.5 4:20.9319 5:26.6406 6:49.475399 7:49.475399 8:94.510696 9:95.144997 10:146.5233 11:156.672104 12:83.0933 13:74.847397 14:74.213097 15:82.459 
100.0 0:28.0 1:28.5 2:28.5 3:28.7 4:26.6406 5:49.475399 6:49.475399 7:48.841099 8:95.144997 9:146.5233 10:156.672104 11:142.717499 12:74.847397 13:74.213097 14:82.459 15:76.115997 
100.0 0:28.5 1:28.5 2:28.7 3:28.7 4:49.475399 5:49.475399 6:48.841099 7:53.2812 8:146.5233 9:156.672104 10:142.717499 11:206.781799 12:74.213097 13:82.459 14:76.115997 15:94.510696 
-100.0 0:28.5 1:28.7 2:28.7 3:28.8 4:49.475399 5:48.841099 6:53.2812 7:72.310196 8:156.672104 9:142.717499 10:206.781799 11:206.781799 12:82.459 13:76.115997 14:94.510696 15:94.510696 
-100.0 0:28.7 1:28.7 2:28.8 3:28.8 4:48.841099 5:53.2812 6:72.310196 7:66.601501 8:142.717499 9:206.781799 10:206.781799 11:208.684692 12:76.115997 13:94.510696 14:94.510696 15:91.339203 
45.22857210355543 0:28.7 1:28.8 2:28.8 3:28.8 4:53.2812 5:72.310196 6:66.601501 7:65.332901 8:206.781799 9:206.781799 10:208.684692 11:202.341705 12:94.510696 13:94.510696 14:91.339203 15:86.899101 
100.0 0:28.8 1:28.8 2:28.8 3:28.8 4:72.310196 5:66.601501 6:65.332901 7:61.5271 8:206.781799 9:208.684692 10:202.341705 11:201.707397 12:94.510696 13:91.339203 14:86.899101 15:90.070602 
100.0 0:28.8 1:28.8 2:28.8 3:29.2 4:66.601501 5:65.332901 6:61.5271 7:66.601501 8:208.684692 9:202.341705 10:201.707397 11:202.341705 12:91.339203 13:86.899101 14:90.070602 15:122.419899 
-100.0 0:28.8 1:28.8 2:29.2 3:29.2 4:65.332901 5:61.5271 6:66.601501 7:59.624199 8:202.341705 9:201.707397 10:202.341705 11:192.827194 12:86.899101 13:90.070602 14:122.419899 15:113.539696 
-100.0 0:28.8 1:29.2 2:29.2 3:29.4 4:61.5271 5:66.601501 6:59.624199 7:55.818398 8:201.707397 9:202.341705 10:192.827194 11:191.558594 12:90.070602 13:122.419899 14:113.539696 15:103.3909 
100.0 0:29.2 1:29.4 2:29.4 3:29.5 4:59.624199 5:55.818398 6:50.109699 7:53.915501 8:192.827194 9:191.558594 10:192.827194 11:180.141205 12:113.539696 13:103.3909 14:103.3909 15:102.756599 
100.0 0:29.4 1:29.4 2:29.5 3:29.5 4:55.818398 5:50.109699 6:53.915501 7:53.915501 8:191.558594 9:192.827194 10:180.141205 11:189.021393 12:103.3909 13:103.3909 14:102.756599 15:112.271095 
100.0 0:29.4 1:29.5 2:29.5 3:29.6 4:50.109699 5:53.915501 6:53.915501 7:60.892799 8:192.827194 9:180.141205 10:189.021393 11:195.364395 12:103.3909 13:102.756599 14:112.271095 15:169.358093 
100.0 0:29.5 1:29.6 2:29.6 3:29.9 4:53.915501 5:60.892799 6:54.549801 7:109.099602 8:189.021393 9:195.364395 10:195.364395 11:183.312698 12:112.271095 13:169.358093 14:168.089493 15:159.843597 
-100.0 0:29.6 1:29.6 2:29.9 3:29.9 4:60.892799 5:54.549801 6:109.099602 7:161.746506 8:195.364395 9:195.364395 10:183.312698 11:185.849899 12:169.358093 13:168.089493 14:159.843597 15:167.4552 
100.0 0:29.6 1:29.9 2:29.9 3:29.7 4:54.549801 5:109.099602 6:161.746506 7:163.649399 8:195.364395 9:183.312698 10:185.849899 11:176.969696 12:168.089493 13:159.843597 14:167.4552 15:158.574997 
100.0 0:29.9 1:29.9 2:29.7 3:29.7 4:109.099602 5:161.746506 6:163.649399 7:154.769196 8:183.312698 9:185.849899 10:176.969696 11:178.238297 12:159.843597 13:167.4552 14:158.574997 15:163.015091 
-100.0 0:29.9 1:29.7 2:29.7 3:29.6 4:161.746506 5:163.649399 6:154.769196 7:162.380798 8:185.849899 9:176.969696 10:178.238297 11:188.3871 12:167.4552 13:158.574997 14:163.015091 15:168.089493 
-100.0 0:29.7 1:29.7 2:29.6 3:29.6 4:163.649399 5:154.769196 6:162.380798 7:164.283691 8:176.969696 9:178.238297 10:188.3871 11:187.752792 12:158.574997 13:163.015091 14:168.089493 15:157.306396 
100.0 0:29.7 1:29.6 2:29.6 3:29.9 4:154.769196 5:162.380798 6:164.283691 7:157.940704 8:178.238297 9:188.3871 10:187.752792 11:174.432495 12:163.015091 13:168.089493 14:157.306396 15:153.500595 
100.0 0:29.6 1:29.6 2:29.9 3:29.9 4:162.380798 5:164.283691 6:157.940704 7:154.134903 8:188.3871 9:187.752792 10:174.432495 11:180.775497 12:168.089493 13:157.306396 14:153.500595 15:157.306396 
-100.0 0:29.6 1:29.9 2:29.9 3:30.2 4:164.283691 5:157.940704 6:154.134903 7:149.060501 8:187.752792 9:174.432495 10:180.775497 11:167.4552 12:157.306396 13:153.500595 14:157.306396 15:161.112198 
-100.0 0:29.9 1:29.9 2:30.2 3:30.2 4:157.940704 5:154.134903 6:149.060501 7:151.597702 8:174.432495 9:180.775497 10:167.4552 11:180.775497 12:153.500595 13:157.306396 14:161.112198 15:152.231995 
100.0 0:29.9 1:30.2 2:30.2 3:30.2 4:154.134903 5:149.060501 6:151.597702 7:150.963394 8:180.775497 9:167.4552 10:180.775497 11:183.946991 12:157.306396 13:161.112198 14:152.231995 15:151.597702 
-100.0 0:30.2 1:30.2 2:30.2 3:30.2 4:149.060501 5:151.597702 6:150.963394 7:146.5233 8:167.4552 9:180.775497 10:183.946991 11:168.723801 12:161.112198 13:152.231995 14:151.597702 15:155.403503 
-100.0 0:30.2 1:30.2 2:30.2 3:30.2 4:150.963394 5:146.5233 6:141.448898 7:139.546005 8:183.946991 9:168.723801 10:164.283691 11:163.015091 12:151.597702 13:155.403503 14:142.083191 15:145.888992 
-100.0 0:30.2 1:30.2 2:30.2 3:30.6 4:146.5233 5:141.448898 6:139.546005 7:139.546005 8:168.723801 9:164.283691 10:163.015091 11:159.209305 12:155.403503 13:142.083191 14:145.888992 15:141.448898 
-100.0 0:30.2 1:30.6 2:30.6 3:30.8 4:139.546005 5:139.546005 6:140.180298 7:142.717499 8:163.015091 9:159.209305 10:159.843597 11:155.403503 12:145.888992 13:141.448898 14:136.374496 15:137.643097 
-100.0 0:30.6 1:30.6 2:30.8 3:30.8 4:139.546005 5:140.180298 6:142.717499 7:43.132401 8:159.209305 9:159.843597 10:155.403503 11:24.7377 12:141.448898 13:136.374496 14:137.643097 15:12.0517 
-100.0 0:30.6 1:30.8 2:30.8 3:30.9 4:140.180298 5:142.717499 6:43.132401 7:39.326599 8:159.843597 9:155.403503 10:24.7377 11:26.6406 12:136.374496 13:137.643097 14:12.0517 15:15.2232 
100.0 0:30.8 1:30.8 2:30.9 3:30.9 4:142.717499 5:43.132401 6:39.326599 7:33.617901 8:155.403503 9:24.7377 10:26.6406 11:25.372 12:137.643097 13:12.0517 14:15.2232 15:13.954599 
-100.0 0:30.8 1:30.9 2:30.9 3:31.4 4:43.132401 5:39.326599 6:33.617901 7:1.9029 8:24.7377 9:26.6406 10:25.372 11:19.028999 12:12.0517 13:15.2232 14:13.954599 15:34.886501 
-100.0 0:30.9 1:30.9 2:31.4 3:31.4 4:39.326599 5:33.617901 6:1.9029 7:34.252201 8:26.6406 9:25.372 10:19.028999 11:5.7087 12:15.2232 13:13.954599 14:34.886501 15:26.0063 
100.0 0:30.9 1:31.4 2:31.4 3:31.3 4:33.617901 5:1.9029 6:34.252201 7:91.339203 8:25.372 9:19.028999 10:5.7087 11:34.252201 12:13.954599 13:34.886501 14:26.0063 15:26.6406 
100.0 0:31.4 1:31.4 2:31.3 3:31.3 4:1.9029 5:34.252201 6:91.339203 7:83.0933 8:19.028999 9:5.7087 10:34.252201 11:45.035301 12:34.886501 13:26.0063 14:26.6406 15:86.264801 
100.0 0:31.4 1:31.3 2:31.3 3:31.2 4:34.252201 5:91.339203 6:83.0933 7:84.3619 8:5.7087 9:34.252201 10:45.035301 11:101.487999 12:26.0063 13:26.6406 14:86.264801 15:141.448898 
100.0 0:31.3 1:31.3 2:31.2 3:31.2 4:91.339203 5:83.0933 6:84.3619 7:88.802002 8:34.252201 9:45.035301 10:101.487999 11:97.682198 12:26.6406 13:86.264801 14:141.448898 15:144.620392 
100.0 0:31.3 1:31.2 2:31.2 3:31.4 4:83.0933 5:84.3619 6:88.802002 7:144.620392 8:45.035301 9:101.487999 10:97.682198 11:157.306396 12:86.264801 13:141.448898 14:144.620392 15:241.033997 
100.0 0:31.2 1:31.2 2:31.4 3:31.4 4:84.3619 5:88.802002 6:144.620392 7:143.351791 8:101.487999 9:97.682198 10:157.306396 11:161.112198 12:141.448898 13:144.620392 14:241.033997 15:243.571198 
100.0 0:31.2 1:31.4 2:31.4 3:31.4 4:88.802002 5:144.620392 6:143.351791 7:147.791901 8:97.682198 9:157.306396 10:161.112198 11:254.988602 12:144.620392 13:241.033997 14:243.571198 15:261.331604 
100.0 0:31.4 1:31.4 2:31.4 3:31.4 4:144.620392 5:143.351791 6:147.791901 7:150.329102 8:157.306396 9:161.112198 10:254.988602 11:247.376999 12:241.033997 13:243.571198 14:261.331604 15:353.939392 
100.0 0:31.4 1:31.4 2:31.4 3:31.3 4:143.351791 5:147.791901 6:150.329102 7:150.329102 8:161.112198 9:254.988602 10:247.376999 11:243.571198 12:243.571198 13:261.331604 14:353.939392 15:352.036499 
100.0 0:31.4 1:31.4 2:31.3 3:31.3 4:147.791901 5:150.329102 6:150.329102 7:145.888992 8:254.988602 9:247.376999 10:243.571198 11:248.011292 12:261.331604 13:353.939392 14:352.036499 15:353.939392 
100.0 0:31.4 1:31.3 2:31.3 3:31.6 4:150.329102 5:150.329102 6:145.888992 7:140.814606 8:247.376999 9:243.571198 10:248.011292 11:250.548492 12:353.939392 13:352.036499 14:353.939392 15:362.819611 
100.0 0:31.3 1:31.3 2:31.6 3:31.6 4:150.329102 5:145.888992 6:140.814606 7:147.791901 8:243.571198 9:248.011292 10:250.548492 11:239.765396 12:352.036499 13:353.939392 14:362.819611 15:360.916687 
100.0 0:31.3 1:31.6 2:31.6 3:31.6 4:145.888992 5:140.814606 6:147.791901 7:238.496796 8:248.011292 9:250.548492 10:239.765396 11:244.20549 12:353.939392 13:362.819611 14:360.916687 15:362.185303 
-100.0 0:31.6 1:31.6 2:31.6 3:31.6 4:140.814606 5:147.791901 6:238.496796 7:241.033997 8:250.548492 9:239.765396 10:244.20549 11:240.399704 12:362.819611 13:360.916687 14:362.185303 15:360.916687 
22.635654338700146 0:31.6 1:31.6 2:31.6 3:31.8 4:147.791901 5:238.496796 6:241.033997 7:237.228195 8:239.765396 9:244.20549 10:240.399704 11:242.302597 12:360.916687 13:362.185303 14:360.916687 15:352.036499 
100.0 0:31.6 1:31.6 2:31.8 3:31.8 4:238.496796 5:241.033997 6:237.228195 7:331.104584 8:244.20549 9:240.399704 10:242.302597 11:245.474091 12:362.185303 13:360.916687 14:352.036499 15:351.402191 
-100.0 0:31.6 1:31.8 2:31.8 3:31.7 4:241.033997 5:237.228195 6:331.104584 7:331.104584 8:240.399704 9:242.302597 10:245.474091 11:338.081909 12:360.916687 13:352.036499 14:351.402191 15:352.036499 
48.882268504723335 0:31.8 1:31.8 2:31.7 3:31.7 4:237.228195 5:331.104584 6:331.104584 7:333.007507 8:242.302597 9:245.474091 10:338.081909 11:343.790588 12:352.036499 13:351.402191 14:352.036499 15:344.424896 
100.0 0:31.8 1:31.7 2:31.7 3:31.6 4:331.104584 5:331.104584 6:333.007507 7:329.835999 8:245.474091 9:338.081909 10:343.790588 11:340.61911 12:351.402191 13:352.036499 14:344.424896 15:346.327789 
100.0 0:31.7 1:31.7 2:31.6 3:31.6 4:331.104584 5:333.007507 6:329.835999 7:333.007507 8:338.081909 9:343.790588 10:340.61911 11:334.276093 12:352.036499 13:344.424896 14:346.327789 15:350.133606 
100.0 0:31.7 1:31.6 2:31.6 3:31.4 4:333.007507 5:329.835999 6:333.007507 7:326.66449 8:343.790588 9:340.61911 10:334.276093 11:341.887695 12:344.424896 13:346.327789 14:350.133606 15:359.013794 
100.0 0:31.6 1:31.6 2:31.4 3:31.4 4:329.835999 5:333.007507 6:326.66449 7:325.395905 8:340.61911 9:334.276093 10:341.887695 11:336.178986 12:346.327789 13:350.133606 14:359.013794 15:354.5737 
100.0 0:31.6 1:31.4 2:31.4 3:31.5 4:333.007507 5:326.66449 6:325.395905 7:326.66449 8:334.276093 9:341.887695 10:336.178986 11:334.276093 12:350.133606 13:359.013794 14:354.5737 15:352.670807 
-100.0 0:31.4 1:31.4 2:31.5 3:31.5 4:326.66449 5:325.395905 6:326.66449 7:324.761597 8:341.887695 9:336.178986 10:334.276093 11:335.544708 12:359.013794 13:354.5737 14:352.670807 15:355.842285 
100.0 0:31.5 1:31.5 2:31.7 3:31.7 4:326.66449 5:324.761597 6:329.835999 7:328.567383 8:334.276093 9:335.544708 10:333.641785 11:339.350494 12:352.670807 13:355.842285 14:348.230682 15:347.596405 
100.0 0:31.5 1:31.7 2:31.7 3:31.9 4:324.761597 5:329.835999 6:328.567383 7:327.933105 8:335.544708 9:333.641785 10:339.350494 11:343.156311 12:355.842285 13:348.230682 14:347.596405 15:356.476593 
100.0 0:31.7 1:31.7 2:31.9 3:31.9 4:329.835999 5:328.567383 6:327.933105 7:324.761597 8:333.641785 9:339.350494 10:343.156311 11:339.350494 12:348.230682 13:347.596405 14:356.476593 15:353.939392 
-100.0 0:31.7 1:31.9 2:31.9 3:31.8 4:328.567383 5:327.933105 6:324.761597 7:324.127289 8:339.350494 9:343.156311 10:339.350494 11:335.544708 12:347.596405 13:356.476593 14:353.939392 15:358.379486 
100.0 0:31.9 1:31.9 2:31.8 3:31.8 4:327.933105 5:324.761597 6:324.127289 7:314.612793 8:343.156311 9:339.350494 10:335.544708 11:334.276093 12:356.476593 13:353.939392 14:358.379486 15:345.059204 
100.0 0:31.9 1:31.8 2:31.8 3:31.8 4:324.761597 5:324.127289 6:314.612793 7:319.687195 8:339.350494 9:335.544708 10:334.276093 11:331.104584 12:353.939392 13:358.379486 14:345.059204 15:347.596405 
100.0 0:31.8 1:31.8 2:31.8 3:31.8 4:324.127289 5:314.612793 6:319.687195 7:324.761597 8:335.544708 9:334.276093 10:331.104584 11:326.66449 12:358.379486 13:345.059204 14:347.596405 15:349.499298 
-100.0 0:31.8 1:31.8 2:31.6 3:31.6 4:319.687195 5:324.761597 6:317.149994 7:318.41861 8:331.104584 9:326.66449 10:329.835999 11:329.835999 12:347.596405 13:349.499298 14:350.767883 15:346.962097 
100.0 0:31.8 1:31.6 2:31.6 3:31.4 4:324.761597 5:317.149994 6:318.41861 7:313.978485 8:326.66449 9:329.835999 10:329.835999 11:319.052887 12:349.499298 13:350.767883 14:346.962097 15:342.522003 
100.0 0:31.6 1:31.6 2:31.4 3:31.4 4:317.149994 5:318.41861 6:313.978485 7:322.224396 8:329.835999 9:329.835999 10:319.052887 11:321.590088 12:350.767883 13:346.962097 14:342.522003 15:349.499298 
100.0 0:31.6 1:31.4 2:31.4 3:31.6 4:318.41861 5:313.978485 6:322.224396 7:322.858704 8:329.835999 9:319.052887 10:321.590088 11:316.515686 12:346.962097 13:342.522003 14:349.499298 15:345.059204 
100.0 0:31.4 1:31.4 2:31.6 3:31.6 4:313.978485 5:322.224396 6:322.858704 7:324.127289 8:319.052887 9:321.590088 10:316.515686 11:313.344208 12:342.522003 13:349.499298 14:345.059204 15:346.327789 
100.0 0:31.4 1:31.6 2:31.6 3:31.3 4:322.224396 5:322.858704 6:324.127289 7:319.687195 8:321.590088 9:316.515686 10:313.344208 11:319.052887 12:349.499298 13:345.059204 14:346.327789 15:348.230682 
-100.0 0:31.6 1:31.6 2:31.3 3:31.3 4:322.858704 5:324.127289 6:319.687195 7:321.590088 8:316.515686 9:313.344208 10:319.052887 11:312.075592 12:345.059204 13:346.327789 14:348.230682 15:354.5737 
-100.0 0:31.6 1:31.3 2:31.3 3:31.2 4:324.127289 5:319.687195 6:321.590088 7:324.761597 8:313.344208 9:319.052887 10:312.075592 11:311.441284 12:346.327789 13:348.230682 14:354.5737 15:348.230682 
-100.0 0:31.3 1:31.3 2:31.2 3:31.2 4:319.687195 5:321.590088 6:324.761597 7:328.567383 8:319.052887 9:312.075592 10:311.441284 11:308.904083 12:348.230682 13:354.5737 14:348.230682 15:346.327789 
-100.0 0:31.2 1:31.2 2:30.8 3:30.8 4:324.761597 5:328.567383 6:315.247101 7:313.978485 8:311.441284 9:308.904083 10:315.881409 11:313.344208 12:348.230682 13:346.327789 14:343.790588 15:344.424896 
100.0 0:31.2 1:30.8 2:30.8 3:30.5 4:328.567383 5:315.247101 6:313.978485 7:317.784302 8:308.904083 9:315.881409 10:313.344208 11:307.635498 12:346.327789 13:343.790588 14:344.424896 15:341.887695 
-100.0 0:30.8 1:30.8 2:30.5 3:30.5 4:315.247101 5:313.978485 6:317.784302 7:315.247101 8:315.881409 9:313.344208 10:307.635498 11:308.269806 12:343.790588 13:344.424896 14:341.887695 15:346.962097 
100.0 0:30.8 1:30.5 2:30.5 3:30.4 4:313.978485 5:317.784302 6:315.247101 7:320.955811 8:313.344208 9:307.635498 10:308.269806 11:311.441284 12:344.424896 13:341.887695 14:346.962097 15:342.522003 
-25.600858129027262 0:30.5 1:30.5 2:30.4 3:30.4 4:317.784302 5:315.247101 6:320.955811 7:324.127289 8:307.635498 9:308.269806 10:311.441284 11:306.366882 12:341.887695 13:346.962097 14:342.522003 15:346.962097 
-100.0 0:30.5 1:30.4 2:30.4 3:30.3 4:315.247101 5:320.955811 6:324.127289 7:324.761597 8:308.269806 9:311.441284 10:306.366882 11:301.926788 12:346.962097 13:342.522003 14:346.962097 15:343.790588 
-100.0 0:30.4 1:30.4 2:30.3 3:30.3 4:320.955811 5:324.127289 6:324.761597 7:322.858704 8:311.441284 9:306.366882 10:301.926788 11:308.904083 12:342.522003 13:346.962097 14:343.790588 15:336.813293 
-100.0 0:30.4 1:30.3 2:30.3 3:30.1 4:324.127289 5:324.761597 6:322.858704 7:322.858704 8:306.366882 9:301.926788 10:308.904083 11:308.904083 12:346.962097 13:343.790588 14:336.813293 15:330.470306 
-100.0 0:30.3 1:30.3 2:30.1 3:30.1 4:324.761597 5:322.858704 6:322.858704 7:319.687195 8:301.926788 9:308.904083 10:308.904083 11:304.463989 12:343.790588 13:336.813293 14:330.470306 15:329.835999 
-100.0 0:30.3 1:30.1 2:30.1 3:30.0 4:322.858704 5:322.858704 6:319.687195 7:320.955811 8:308.904083 9:308.904083 10:304.463989 11:308.269806 12:336.813293 13:330.470306 14:329.835999 15:328.567383 
-100.0 0:30.1 1:30.1 2:30.0 3:30.0 4:322.858704 5:319.687195 6:320.955811 7:329.835999 8:308.904083 9:304.463989 10:308.269806 11:311.441284 12:330.470306 13:329.835999 14:328.567383 15:322.224396 
-100.0 0:30.1 1:30.0 2:30.0 3:29.9 4:319.687195 5:320.955811 6:329.835999 7:326.030182 8:304.463989 9:308.269806 10:311.441284 11:314.612793 12:329.835999 13:328.567383 14:322.224396 15:312.075592 
100.0 0:30.0 1:30.0 2:29.9 3:29.9 4:320.955811 5:329.835999 6:326.030182 7:323.493011 8:308.269806 9:311.441284 10:314.612793 11:308.269806 12:328.567383 13:322.224396 14:312.075592 15:309.538391 
100.0 0:30.0 1:29.9 2:29.9 3:29.8 4:329.835999 5:326.030182 6:323.493011 7:318.41861 8:311.441284 9:314.612793 10:308.269806 11:309.538391 12:322.224396 13:312.075592 14:309.538391 15:320.321503 
-100.0 0:29.9 1:29.9 2:29.8 3:29.8 4:326.030182 5:323.493011 6:318.41861 7:323.493011 8:314.612793 9:308.269806 10:309.538391 11:315.247101 12:312.075592 13:309.538391 14:320.321503 15:320.321503 
-100.0 0:29.8 1:29.8 2:29.7 3:29.7 4:318.41861 5:323.493011 6:320.321503 7:314.612793 8:309.538391 9:315.247101 10:312.7099 11:314.612793 12:320.321503 13:320.321503 14:313.344208 15:319.687195 
-100.0 0:29.8 1:29.7 2:29.7 3:29.6 4:323.493011 5:320.321503 6:314.612793 7:314.612793 8:315.247101 9:312.7099 10:314.612793 11:311.441284 12:320.321503 13:313.344208 14:319.687195 15:312.075592 
-100.0 0:29.7 1:29.7 2:29.6 3:29.6 4:320.321503 5:314.612793 6:314.612793 7:315.881409 8:312.7099 9:314.612793 10:311.441284 11:310.807007 12:313.344208 13:319.687195 14:312.075592 15:310.807007 
100.0 0:29.7 1:29.6 2:29.6 3:29.5 4:314.612793 5:314.612793 6:315.881409 7:309.538391 8:314.612793 9:311.441284 10:310.807007 11:315.247101 12:319.687195 13:312.075592 14:310.807007 15:310.172699 
-100.0 0:29.6 1:29.5 2:29.5 3:29.4 4:315.881409 5:309.538391 6:313.344208 7:315.247101 8:310.807007 9:315.247101 10:315.247101 11:305.098297 12:310.807007 13:310.172699 14:315.881409 15:316.515686 
100.0 0:29.4 1:29.4 2:29.3 3:29.3 4:315.247101 5:319.687195 6:319.687195 7:323.493011 8:305.098297 9:309.538391 10:310.172699 11:307.635498 12:316.515686 13:314.612793 14:317.149994 15:318.41861 
100.0 0:29.4 1:29.3 2:29.3 3:29.2 4:319.687195 5:319.687195 6:323.493011 7:317.784302 8:309.538391 9:310.172699 10:307.635498 11:315.247101 12:314.612793 13:317.149994 14:318.41861 15:321.590088 
100.0 0:29.2 1:29.2 2:29.2 3:29.2 4:317.784302 5:234.056702 6:232.788101 7:237.228195 8:315.247101 9:315.881409 10:317.784302 11:314.612793 12:321.590088 13:324.127289 14:324.127289 15:322.858704 
-100.0 0:29.2 1:29.2 2:29.2 3:29.0 4:234.056702 5:232.788101 6:237.228195 7:236.593903 8:315.881409 9:317.784302 10:314.612793 11:319.687195 12:324.127289 13:324.127289 14:322.858704 15:328.567383 
-100.0 0:29.2 1:29.2 2:29.0 3:29.0 4:232.788101 5:237.228195 6:236.593903 7:237.862503 8:317.784302 9:314.612793 10:319.687195 11:319.052887 12:324.127289 13:322.858704 14:328.567383 15:246.108398 
-100.0 0:29.2 1:29.0 2:29.0 3:28.9 4:237.228195 5:236.593903 6:237.862503 7:235.959595 8:314.612793 9:319.687195 10:319.052887 11:322.224396 12:322.858704 13:328.567383 14:246.108398 15:235.325302 
-100.0 0:29.0 1:29.0 2:28.9 3:28.9 4:236.593903 5:237.862503 6:235.959595 7:246.108398 8:319.687195 9:319.052887 10:322.224396 11:322.224396 12:328.567383 13:246.108398 14:235.325302 15:241.668304 
-100.0 0:29.0 1:28.9 2:28.9 3:28.8 4:237.862503 5:235.959595 6:246.108398 7:237.228195 8:319.052887 9:322.224396 10:322.224396 11:319.687195 12:246.108398 13:235.325302 14:241.668304 15:238.496796 
100.0 0:28.9 1:28.9 2:28.8 3:28.8 4:235.959595 5:246.108398 6:237.228195 7:239.765396 8:322.224396 9:322.224396 10:319.687195 11:322.858704 12:235.325302 13:241.668304 14:238.496796 15:235.325302 
-100.0 0:28.9 1:28.8 2:28.8 3:28.7 4:246.108398 5:237.228195 6:239.765396 7:244.20549 8:322.224396 9:319.687195 10:322.858704 11:319.687195 12:241.668304 13:238.496796 14:235.325302 15:239.131104 
-100.0 0:28.8 1:28.8 2:28.7 3:28.7 4:237.228195 5:239.765396 6:244.20549 7:249.279892 8:319.687195 9:322.858704 10:319.687195 11:335.544708 12:238.496796 13:235.325302 14:239.131104 15:149.060501 
-100.0 0:28.8 1:28.7 2:28.7 3:28.5 4:239.765396 5:244.20549 6:249.279892 7:250.548492 8:322.858704 9:319.687195 10:335.544708 11:331.738892 12:235.325302 13:239.131104 14:149.060501 15:146.5233 
100.0 0:28.7 1:28.7 2:28.5 3:28.5 4:244.20549 5:249.279892 6:250.548492 7:149.060501 8:319.687195 9:335.544708 10:331.738892 11:331.104584 12:239.131104 13:149.060501 14:146.5233 15:145.2547 
100.0 0:28.7 1:28.5 2:28.5 3:28.3 4:249.279892 5:250.548492 6:149.060501 7:156.037796 8:335.544708 9:331.738892 10:331.104584 11:358.379486 12:149.060501 13:146.5233 14:145.2547 15:153.500595 
-100.0 0:28.5 1:28.5 2:28.3 3:28.3 4:250.548492 5:149.060501 6:156.037796 7:160.477905 8:331.738892 9:331.104584 10:358.379486 11:361.550995 12:146.5233 13:145.2547 14:153.500595 15:155.403503 
-94.02229759661348 0:28.5 1:28.3 2:28.3 3:28.3 4:149.060501 5:156.037796 6:160.477905 7:158.574997 8:331.104584 9:358.379486 10:361.550995 11:365.356812 12:145.2547 13:153.500595 14:155.403503 15:154.769196 
100.0 0:28.3 1:28.3 2:28.3 3:28.3 4:156.037796 5:160.477905 6:158.574997 7:161.746506 8:358.379486 9:361.550995 10:365.356812 11:266.406006 12:153.500595 13:155.403503 14:154.769196 15:154.769196 
100.0 0:28.3 1:28.3 2:28.3 3:28.3 4:160.477905 5:158.574997 6:161.746506 7:156.037796 8:361.550995 9:365.356812 10:266.406006 11:274.017609 12:155.403503 13:154.769196 14:154.769196 15:163.015091 
100.0 0:28.3 1:28.3 2:28.3 3:28.3 4:158.574997 5:161.746506 6:156.037796 7:169.992401 8:365.356812 9:266.406006 10:274.017609 11:180.141205 12:154.769196 13:154.769196 14:163.015091 15:168.723801 
-100.0 0:28.3 1:28.3 2:28.3 3:28.3 4:161.746506 5:156.037796 6:169.992401 7:169.358093 8:266.406006 9:274.017609 10:180.141205 11:177.604004 12:154.769196 13:163.015091 14:168.723801 15:164.917999 
-100.0 0:28.3 1:28.3 2:28.3 3:28.3 4:156.037796 5:169.992401 6:169.358093 7:169.992401 8:274.017609 9:180.141205 10:177.604004 11:177.604004 12:163.015091 13:168.723801 14:164.917999 15:159.843597 
100.0 0:28.3 1:28.3 2:28.3 3:28.2 4:169.992401 5:169.358093 6:169.992401 7:171.895294 8:180.141205 9:177.604004 10:177.604004 11:171.895294 12:168.723801 13:164.917999 14:159.843597 15:152.866302 
100.0 0:28.3 1:28.3 2:28.2 3:28.2 4:169.358093 5:169.992401 6:171.895294 7:170.626694 8:177.604004 9:177.604004 10:171.895294 11:173.163895 12:164.917999 13:159.843597 14:152.866302 15:157.306396 
-100.0 0:28.3 1:28.2 2:28.2 3:28.2 4:169.992401 5:171.895294 6:170.626694 7:172.529602 8:177.604004 9:171.895294 10:173.163895 11:176.335403 12:159.843597 13:152.866302 14:157.306396 15:162.380798 
100.0 0:28.2 1:28.2 2:28.2 3:28.2 4:171.895294 5:170.626694 6:172.529602 7:177.604004 8:171.895294 9:173.163895 10:176.335403 11:171.895294 12:152.866302 13:157.306396 14:162.380798 15:152.866302 
-100.0 0:28.2 1:28.2 2:28.2 3:28.0 4:170.626694 5:172.529602 6:177.604004 7:182.678406 8:173.163895 9:176.335403 10:171.895294 11:192.827194 12:157.306396 13:162.380798 14:152.866302 15:169.992401 
100.0 0:28.2 1:28.2 2:28.0 3:28.0 4:172.529602 5:177.604004 6:182.678406 7:179.506897 8:176.335403 9:171.895294 10:192.827194 11:187.1185 12:162.380798 13:152.866302 14:169.992401 15:155.403503 
-100.0 0:28.2 1:28.0 2:28.0 3:28.0 4:177.604004 5:182.678406 6:179.506897 7:176.969696 8:171.895294 9:192.827194 10:187.1185 11:192.827194 12:152.866302 13:169.992401 14:155.403503 15:166.820892 
100.0 0:28.0 1:28.0 2:28.0 3:28.0 4:182.678406 5:179.506897 6:176.969696 7:179.506897 8:192.827194 9:187.1185 10:192.827194 11:183.946991 12:169.992401 13:155.403503 14:166.820892 15:158.574997 
100.0 0:28.0 1:28.0 2:28.0 3:27.9 4:179.506897 5:176.969696 6:179.506897 7:174.432495 8:187.1185 9:192.827194 10:183.946991 11:189.655701 12:155.403503 13:166.820892 14:158.574997 15:162.380798 
100.0 0:28.0 1:28.0 2:27.9 3:27.9 4:176.969696 5:179.506897 6:174.432495 7:178.238297 8:192.827194 9:183.946991 10:189.655701 11:190.924301 12:166.820892 13:158.574997 14:162.380798 15:163.015091 
100.0 0:28.0 1:27.9 2:27.9 3:27.8 4:179.506897 5:174.432495 6:178.238297 7:198.535904 8:183.946991 9:189.655701 10:190.924301 11:195.364395 12:158.574997 13:162.380798 14:163.015091 15:164.917999 
100.0 0:27.8 1:27.8 2:27.8 3:27.8 4:198.535904 5:184.581299 6:184.581299 7:188.3871 8:195.364395 9:185.849899 10:188.3871 11:185.849899 12:164.917999 13:166.820892 14:166.820892 15:166.1866 
-100.0 0:27.8 1:27.8 2:27.8 3:27.6 4:184.581299 5:184.581299 6:188.3871 7:191.558594 8:185.849899 9:188.3871 10:185.849899 11:195.998703 12:166.820892 13:166.820892 14:166.1866 15:177.604004 
100.0 0:27.8 1:27.8 2:27.6 3:27.6 4:184.581299 5:188.3871 6:191.558594 7:193.461502 8:188.3871 9:185.849899 10:195.998703 11:203.610291 12:166.820892 13:166.1866 14:177.604004 15:165.552292 
100.0 0:27.8 1:27.6 2:27.6 3:27.5 4:188.3871 5:191.558594 6:193.461502 7:200.438797 8:185.849899 9:195.998703 10:203.610291 11:189.655701 12:166.1866 13:177.604004 14:165.552292 15:177.604004 
100.0 0:27.6 1:27.6 2:27.5 3:27.5 4:191.558594 5:193.461502 6:200.438797 7:204.878891 8:195.998703 9:203.610291 10:189.655701 11:191.558594 12:177.604004 13:165.552292 14:177.604004 15:178.872604 
100.0 0:27.6 1:27.5 2:27.5 3:27.3 4:193.461502 5:200.438797 6:204.878891 7:205.513199 8:203.610291 9:189.655701 10:191.558594 11:199.804504 12:165.552292 13:177.604004 14:178.872604 15:180.141205 
100.0 0:27.5 1:27.5 2:27.3 3:27.3 4:200.438797 5:204.878891 6:205.513199 7:213.759094 8:189.655701 9:191.558594 10:199.804504 11:200.438797 12:177.604004 13:178.872604 14:180.141205 15:192.827194 
100.0 0:27.5 1:27.3 2:27.3 3:27.0 4:204.878891 5:205.513199 6:213.759094 7:213.124802 8:191.558594 9:199.804504 10:200.438797 11:207.416092 12:178.872604 13:180.141205 14:192.827194 15:196.632996 
-100.0 0:27.3 1:27.3 2:27.0 3:27.0 4:205.513199 5:213.759094 6:213.124802 7:222.005005 8:199.804504 9:200.438797 10:207.416092 11:201.073105 12:180.141205 13:192.827194 14:196.632996 15:201.707397 
